{"learner":{"attributes":{"scikit_learn":"{\"_estimator_type\": \"classifier\"}"},"feature_names":["NVDA_Close","GSPC_Close","NVDA_Volume","GSPC_Volume","NVDA_Return","GSPC_Return","NVDA_RollingVol","GSPC_RollingVol","NVDA_Return_lag1"],"feature_types":["float","float","int","int","float","float","float","float","float"],"gradient_booster":{"model":{"gbtree_model_param":{"num_parallel_tree":"1","num_trees":"100"},"iteration_indptr":[0,1,2,3,4,5,6,7,8,9,10,11,12,13,14,15,16,17,18,19,20,21,22,23,24,25,26,27,28,29,30,31,32,33,34,35,36,37,38,39,40,41,42,43,44,45,46,47,48,49,50,51,52,53,54,55,56,57,58,59,60,61,62,63,64,65,66,67,68,69,70,71,72,73,74,75,76,77,78,79,80,81,82,83,84,85,86,87,88,89,90,91,92,93,94,95,96,97,98,99,100],"tree_info":[0,0,0,0,0,0,0,0,0,0,0,0,0,0,0,0,0,0,0,0,0,0,0,0,0,0,0,0,0,0,0,0,0,0,0,0,0,0,0,0,0,0,0,0,0,0,0,0,0,0,0,0,0,0,0,0,0,0,0,0,0,0,0,0,0,0,0,0,0,0,0,0,0,0,0,0,0,0,0,0,0,0,0,0,0,0,0,0,0,0,0,0,0,0,0,0,0,0,0,0],"trees":[{"base_weights":[9.077024E-5,2.4306228E-2,-9.327483E-1,1.7049184E-1,-8.8730544E-2,-1.1146208E0,4.8084557E-3,1.0376021E-4,3.8174845E-3,7.1790433E-3,-1.227564E-3,-6.4044604E-3,-1.7702796E-2],"categories":[],"categories_nodes":[],"categories_segments":[],"categories_sizes":[],"default_left":[0,0,0,0,0,0,0,0,0,0,0,0,0],"id":0,"left_children":[1,3,5,7,9,11,-1,-1,-1,-1,-1,-1,-1],"loss_changes":[1.6029903E1,1.1444533E1,5.1521015E0,1.0209755E1,1.0811934E1,3.905779E0,0E0,0E0,0E0,0E0,0E0,0E0,0E0],"parents":[2147483647,0,0,1,1,2,2,3,3,4,4,5,5],"right_children":[2,4,6,8,10,12,-1,-1,-1,-1,-1,-1,-1],"split_conditions":[2.0144986E-2,-1.6351145E-3,3.4339625E-2,8.077849E-1,-6.814694E-3,3.4221652E0,4.8084557E-3,1.0376021E-4,3.8174845E-3,7.1790433E-3,-1.227564E-3,-6.4044604E-3,-1.7702796E-2],"split_indices":[5,4,8,0,5,0,0,0,0,0,0,0,0],"split_type":[0,0,0,0,0,0,0,0,0,0,0,0,0],"sum_hessian":[7.0762555E2,6.906705E2,1.6955088E1,3.009528E2,3.8971768E2,1.5209711E1,1.7453766E0,1.7179494E2,1.2915787E2,1.4960371E1,3.747573E2,9.973581E0,5.2361298E0],"tree_param":{"num_deleted":"0","num_feature":"9","num_nodes":"13","size_leaf_vector":"1"}},{"base_weights":[7.683459E-5,2.4077956E-2,-9.241275E-1,1.68815E-1,-8.7823756E-2,-1.104445E0,4.7786585E-3,1.0272928E-4,3.7803557E-3,7.114311E-3,-1.2152429E-3,-6.3444027E-3,-1.7541835E-2],"categories":[],"categories_nodes":[],"categories_segments":[],"categories_sizes":[],"default_left":[0,0,0,0,0,0,0,0,0,0,0,0,0],"id":1,"left_children":[1,3,5,7,9,11,-1,-1,-1,-1,-1,-1,-1],"loss_changes":[1.5740901E1,1.1217199E1,5.0686884E0,1.0011086E1,1.061104E1,3.8395004E0,0E0,0E0,0E0,0E0,0E0,0E0,0E0],"parents":[2147483647,0,0,1,1,2,2,3,3,4,4,5,5],"right_children":[2,4,6,8,10,12,-1,-1,-1,-1,-1,-1,-1],"split_conditions":[2.0144986E-2,-1.6351145E-3,3.4339625E-2,8.077849E-1,-6.814694E-3,3.4221652E0,4.7786585E-3,1.0272928E-4,3.7803557E-3,7.114311E-3,-1.2152429E-3,-6.3444027E-3,-1.7541835E-2],"split_indices":[5,4,8,0,5,0,0,0,0,0,0,0,0],"split_type":[0,0,0,0,0,0,0,0,0,0,0,0,0],"sum_hessian":[7.076237E2,6.9066156E2,1.6962185E1,3.009261E2,3.8973547E2,1.521725E1,1.7449353E0,1.7179402E2,1.2913206E2,1.495466E1,3.7478082E2,9.976763E0,5.240487E0],"tree_param":{"num_deleted":"0","num_feature":"9","num_nodes":"13","size_leaf_vector":"1"}},{"base_weights":[6.3068E-5,2.3851782E-2,-9.1564155E-1,1.6715504E-1,-8.692659E-2,-4.0962166E-1,-1.4634918E0,1.0170784E-4,3.7436092E-3,7.0503065E-3,-1.2030491E-3,-7.4872975E-3,8.489869E-3,-1.6378393E-2,-2.7002257E-3],"categories":[],"categories_nodes":[],"categories_segments":[],"categories_sizes":[],"default_left":[0,0,0,0,0,0,0,0,0,0,0,0,0,0,0],"id":2,"left_children":[1,3,5,7,9,11,13,-1,-1,-1,-1,-1,-1,-1,-1],"loss_changes":[1.5458003E1,1.0994423E1,4.3817186E0,9.816371E0,1.0414049E1,5.215007E0,1.272068E0,0E0,0E0,0E0,0E0,0E0,0E0,0E0,0E0],"parents":[2147483647,0,0,1,1,2,2,3,3,4,4,5,5,6,6],"right_children":[2,4,6,8,10,12,14,-1,-1,-1,-1,-1,-1,-1,-1],"split_conditions":[2.0144986E-2,-1.6351145E-3,8.077849E-1,8.077849E-1,-6.814694E-3,1.92021E3,7.8339343E0,1.0170784E-4,3.7436092E-3,7.0503065E-3,-1.2030491E-3,-7.4872975E-3,8.489869E-3,-1.6378393E-2,-2.7002257E-3],"split_indices":[5,4,0,0,5,1,0,0,0,0,0,0,0,0,0],"split_type":[0,0,0,0,0,0,0,0,0,0,0,0,0,0,0],"sum_hessian":[7.076193E2,6.906511E2,1.696819E1,3.008987E2,3.8975244E2,9.729376E0,7.238814E0,1.717931E2,1.2910559E2,1.4948624E1,3.748038E2,7.9834895E0,1.7458862E0,5.9912496E0,1.2475647E0],"tree_param":{"num_deleted":"0","num_feature":"9","num_nodes":"15","size_leaf_vector":"1"}},{"base_weights":[5.0778275E-5,2.3627799E-2,-9.0722215E-1,1.6551186E-1,-8.6038806E-2,-1.0855163E0,4.7745076E-3,2.0888339E-4,3.5763416E-3,6.9870204E-3,-1.1909798E-3,-5.7727695E-3,-1.6360579E-2],"categories":[],"categories_nodes":[],"categories_segments":[],"categories_sizes":[],"default_left":[0,0,0,0,0,0,0,0,0,0,0,0,0],"id":3,"left_children":[1,3,5,7,9,11,-1,-1,-1,-1,-1,-1,-1],"loss_changes":[1.5179224E1,1.0776108E1,4.955557E0,8.380128E0,1.0220881E1,3.5964298E0,0E0,0E0,0E0,0E0,0E0,0E0,0E0],"parents":[2147483647,0,0,1,1,2,2,3,3,4,4,5,5],"right_children":[2,4,6,8,10,12,-1,-1,-1,-1,-1,-1,-1],"split_conditions":[2.0144986E-2,-1.6351145E-3,3.4339625E-2,2.1052E3,-6.814694E-3,2.01343E3,4.7745076E-3,2.0888339E-4,3.5763416E-3,6.9870204E-3,-1.1909798E-3,-5.7727695E-3,-1.6360579E-2],"split_indices":[5,4,8,1,5,1,0,0,0,0,0,0,0],"split_type":[0,0,0,0,0,0,0,0,0,0,0,0,0],"sum_hessian":[7.0761273E2,6.906393E2,1.697347E1,3.0087067E2,3.897686E2,1.5228639E1,1.7448318E0,1.7228714E2,1.2858353E2,1.4942272E1,3.748263E2,8.983744E0,6.244895E0],"tree_param":{"num_deleted":"0","num_feature":"9","num_nodes":"13","size_leaf_vector":"1"}},{"base_weights":[3.9371913E-5,2.3405854E-2,-8.989074E-1,-1.3210015E-1,1.0693346E-1,-1.0757189E0,4.7449577E-3,-1.0525797E-2,-1.0531686E-3,2.9289428E-4,4.0718615E-3,-5.7196007E-3,-1.6214E-2],"categories":[],"categories_nodes":[],"categories_segments":[],"categories_sizes":[],"default_left":[0,0,0,0,0,0,0,0,0,0,0,0,0],"id":4,"left_children":[1,3,5,7,9,11,-1,-1,-1,-1,-1,-1,-1],"loss_changes":[1.4905421E1,8.997688E0,4.875986E0,5.85845E0,1.0490454E1,3.5350037E0,0E0,0E0,0E0,0E0,0E0,0E0,0E0],"parents":[2147483647,0,0,1,1,2,2,3,3,4,4,5,5],"right_children":[2,4,6,8,10,12,-1,-1,-1,-1,-1,-1,-1],"split_conditions":[2.0144986E-2,1.8009E3,3.4339625E-2,8.643236E-3,3.0332815E-2,2.01343E3,4.7449577E-3,-1.0525797E-2,-1.0531686E-3,2.9289428E-4,4.0718615E-3,-5.7196007E-3,-1.6214E-2],"split_indices":[5,1,8,6,6,1,0,0,0,0,0,0,0],"split_type":[0,0,0,0,0,0,0,0,0,0,0,0,0],"sum_hessian":[7.076038E2,6.906262E2,1.6977604E1,2.4112836E2,4.4949783E2,1.5233233E1,1.7443709E0,5.734855E0,2.353935E2,3.5801443E2,9.1483406E1,8.985869E0,6.247364E0],"tree_param":{"num_deleted":"0","num_feature":"9","num_nodes":"13","size_leaf_vector":"1"}},{"base_weights":[4.731552E-6,1.6186912E-1,-1.1998606E-1,1.0508797E-2,3.613642E-1,-3.355516E-1,-2.8617406E-2,4.019499E-3,-7.7630184E-4,9.383917E-3,2.7988234E-3,-3.5886872E-3,1.0586461E-2,2.2718213E-3,-1.6693176E-3],"categories":[],"categories_nodes":[],"categories_segments":[],"categories_sizes":[],"default_left":[0,0,0,0,0,0,0,0,0,0,0,0,0,0,0],"id":5,"left_children":[1,3,5,7,9,11,13,-1,-1,-1,-1,-1,-1,-1,-1],"loss_changes":[1.378195E1,9.117941E0,8.016659E0,5.9928756E0,5.863329E0,4.320444E0,1.0202602E1,0E0,0E0,0E0,0E0,0E0,0E0,0E0,0E0],"parents":[2147483647,0,0,1,1,2,2,3,3,4,4,5,5,6,6],"right_children":[2,4,6,8,10,12,14,-1,-1,-1,-1,-1,-1,-1,-1],"split_conditions":[-1.6351145E-3,8.077849E-1,1.6825E3,2.895429E-1,-4.4943374E-2,6.9415696E-2,2.09993E3,4.019499E-3,-7.7630184E-4,9.383917E-3,2.7988234E-3,-3.5886872E-3,1.0586461E-2,2.2718213E-3,-1.6693176E-3],"split_indices":[4,0,1,0,4,8,1,0,0,0,0,0,0,0,0],"split_type":[0,0,0,0,0,0,0,0,0,0,0,0,0,0,0],"sum_hessian":[7.075965E2,3.010879E2,4.065086E2,1.7179599E2,1.292919E2,1.2021457E2,2.8629404E2,3.0918951E1,1.4087703E2,1.4696877E1,1.14595024E2,1.1896751E2,1.2470644E0,1.0024947E2,1.8604457E2],"tree_param":{"num_deleted":"0","num_feature":"9","num_nodes":"15","size_leaf_vector":"1"}},{"base_weights":[3.739318E-5,1.6031708E-1,-1.1876065E-1,1.0422532E-2,3.579213E-1,-3.3208424E-1,-2.8328735E-2,3.9813756E-3,-7.685642E-4,9.301177E-3,2.7715436E-3,-1.7875928E-3,-5.236196E-3,2.2495815E-3,-1.65258E-3],"categories":[],"categories_nodes":[],"categories_segments":[],"categories_sizes":[],"default_left":[0,0,0,0,0,0,0,0,0,0,0,0,0,0,0],"id":6,"left_children":[1,3,5,7,9,11,13,-1,-1,-1,-1,-1,-1,-1,-1],"loss_changes":[1.3511258E1,8.943197E0,7.8523946E0,5.8778753E0,5.76231E0,3.4667015E0,1.0001344E1,0E0,0E0,0E0,0E0,0E0,0E0,0E0,0E0],"parents":[2147483647,0,0,1,1,2,2,3,3,4,4,5,5,6,6],"right_children":[2,4,6,8,10,12,14,-1,-1,-1,-1,-1,-1,-1,-1],"split_conditions":[-1.6351145E-3,8.077849E-1,1.6825E3,2.895429E-1,-4.4943374E-2,3.3516383E-1,2.09993E3,3.9813756E-3,-7.685642E-4,9.301177E-3,2.7715436E-3,-1.7875928E-3,-5.236196E-3,2.2495815E-3,-1.65258E-3],"split_indices":[4,0,1,0,4,0,1,0,0,0,0,0,0,0,0],"split_type":[0,0,0,0,0,0,0,0,0,0,0,0,0,0,0],"sum_hessian":[7.0759094E2,3.0105914E2,4.0653183E2,1.717951E2,1.2926405E2,1.202342E2,2.862976E2,3.0912472E1,1.4088263E2,1.4688281E1,1.14575775E2,6.785181E1,5.2382393E1,1.00238014E2,1.860596E2],"tree_param":{"num_deleted":"0","num_feature":"9","num_nodes":"15","size_leaf_vector":"1"}},{"base_weights":[4.9716862E-5,2.312994E-2,-8.8763344E-1,1.606604E-1,-8.31263E-2,-1.0626553E0,4.7163097E-3,1.0337083E-4,3.59253E-3,6.9370097E-3,-1.1584134E-3,-6.065031E-3,-1.6946666E-2],"categories":[],"categories_nodes":[],"categories_segments":[],"categories_sizes":[],"default_left":[0,0,0,0,0,0,0,0,0,0,0,0,0],"id":7,"left_children":[1,3,5,7,9,11,-1,-1,-1,-1,-1,-1,-1],"loss_changes":[1.4537912E1,1.0120036E1,4.7791243E0,9.005358E0,1.0012641E1,3.6535263E0,0E0,0E0,0E0,0E0,0E0,0E0,0E0],"parents":[2147483647,0,0,1,1,2,2,3,3,4,4,5,5],"right_children":[2,4,6,8,10,12,-1,-1,-1,-1,-1,-1,-1],"split_conditions":[2.0144986E-2,-1.6351145E-3,3.4339625E-2,8.077849E-1,-6.814694E-3,3.4221652E0,4.7163097E-3,1.0337083E-4,3.59253E-3,6.9370097E-3,-1.1584134E-3,-6.065031E-3,-1.6946666E-2],"split_indices":[5,4,8,0,5,0,0,0,0,0,0,0,0],"split_type":[0,0,0,0,0,0,0,0,0,0,0,0,0],"sum_hessian":[7.0758234E2,6.9060034E2,1.6982023E1,3.0078012E2,3.8982022E2,1.5238139E1,1.7438842E0,1.7179395E2,1.2898618E2,1.4936834E1,3.748834E2,9.988564E0,5.249576E0],"tree_param":{"num_deleted":"0","num_feature":"9","num_nodes":"13","size_leaf_vector":"1"}},{"base_weights":[3.6895588E-5,2.2913E-2,-8.796847E-1,1.5908231E-1,-8.2277305E-2,-1.053295E0,4.6871817E-3,1.0234348E-4,3.5576958E-3,6.8749804E-3,-1.1467971E-3,-6.0088434E-3,-1.6803248E-2],"categories":[],"categories_nodes":[],"categories_segments":[],"categories_sizes":[],"default_left":[0,0,0,0,0,0,0,0,0,0,0,0,0],"id":8,"left_children":[1,3,5,7,9,11,-1,-1,-1,-1,-1,-1,-1],"loss_changes":[1.4279796E1,9.919118E0,4.70366E0,8.830533E0,9.82725E0,3.5973282E0,0E0,0E0,0E0,0E0,0E0,0E0,0E0],"parents":[2147483647,0,0,1,1,2,2,3,3,4,4,5,5],"right_children":[2,4,6,8,10,12,-1,-1,-1,-1,-1,-1,-1],"split_conditions":[2.0144986E-2,-1.6351145E-3,3.4339625E-2,8.077849E-1,-6.814694E-3,3.4221652E0,4.6871817E-3,1.0234348E-4,3.5576958E-3,6.8749804E-3,-1.1467971E-3,-6.0088434E-3,-1.6803248E-2],"split_indices":[5,4,8,0,5,0,0,0,0,0,0,0,0],"split_type":[0,0,0,0,0,0,0,0,0,0,0,0,0],"sum_hessian":[7.075675E2,6.905836E2,1.6983845E1,3.0074963E2,3.89834E2,1.5240455E1,1.7433908E0,1.7179303E2,1.2895659E2,1.492994E1,3.7490408E2,9.990484E0,5.24997E0],"tree_param":{"num_deleted":"0","num_feature":"9","num_nodes":"13","size_leaf_vector":"1"}},{"base_weights":[2.4331139E-5,2.2698166E-2,-8.718538E-1,-8.174259E-2,1.5020068E-1,-3.834557E-1,-1.4021883E0,-4.7972015E-4,-7.614021E-3,9.771824E-3,1.1614928E-3,-7.1678334E-3,8.481349E-3,-1.572372E-2,-2.4869717E-3],"categories":[],"categories_nodes":[],"categories_segments":[],"categories_sizes":[],"default_left":[0,0,0,0,0,0,0,0,0,0,0,0,0,0,0],"id":9,"left_children":[1,3,5,7,9,11,13,-1,-1,-1,-1,-1,-1,-1,-1],"loss_changes":[1.4026997E1,9.221484E0,4.12062E0,8.704039E0,8.665476E0,5.0165086E0,1.2276459E0,0E0,0E0,0E0,0E0,0E0,0E0,0E0,0E0],"parents":[2147483647,0,0,1,1,2,2,3,3,4,4,5,5,6,6],"right_children":[2,4,6,8,10,12,14,-1,-1,-1,-1,-1,-1,-1,-1],"split_conditions":[2.0144986E-2,8.4304935E-1,8.077849E-1,2.09993E3,-2.077348E-2,1.92021E3,7.8339343E0,-4.7972015E-4,-7.614021E-3,9.771824E-3,1.1614928E-3,-7.1678334E-3,8.481349E-3,-1.572372E-2,-2.4869717E-3],"split_indices":[5,0,0,1,5,1,0,0,0,0,0,0,0,0,0],"split_type":[0,0,0,0,0,0,0,0,0,0,0,0,0,0,0],"sum_hessian":[7.075504E2,6.905657E2,1.6984705E1,3.7981107E2,3.1075464E2,9.738929E0,7.2457757E0,3.6285242E2,1.6958645E1,1.119411E1,2.9956052E2,7.993504E0,1.745425E0,5.99774E0,1.2480361E0],"tree_param":{"num_deleted":"0","num_feature":"9","num_nodes":"15","size_leaf_vector":"1"}},{"base_weights":[4.3890536E-6,2.2475831E-2,-8.640522E-1,-8.0943264E-2,1.4874698E-1,-1.0358626E0,4.682E-3,-4.7492518E-4,-7.5395415E-3,9.688479E-3,1.1499914E-3,-5.897512E-3,-1.654934E-2],"categories":[],"categories_nodes":[],"categories_segments":[],"categories_sizes":[],"default_left":[0,0,0,0,0,0,0,0,0,0,0,0,0],"id":10,"left_children":[1,3,5,7,9,11,-1,-1,-1,-1,-1,-1,-1],"loss_changes":[1.3776824E1,9.042928E0,4.6017036E0,8.537613E0,8.516147E0,3.5096283E0,0E0,0E0,0E0,0E0,0E0,0E0,0E0],"parents":[2147483647,0,0,1,1,2,2,3,3,4,4,5,5],"right_children":[2,4,6,8,10,12,-1,-1,-1,-1,-1,-1,-1],"split_conditions":[2.0144986E-2,8.4304935E-1,3.4339625E-2,2.09993E3,-2.077348E-2,3.4221652E0,4.682E-3,-4.7492518E-4,-7.5395415E-3,9.688479E-3,1.1499914E-3,-5.897512E-3,-1.654934E-2],"split_indices":[5,0,8,1,5,0,0,0,0,0,0,0,0],"split_type":[0,0,0,0,0,0,0,0,0,0,0,0,0],"sum_hessian":[7.075383E2,6.9055316E2,1.6985168E1,3.7982574E2,3.1072742E2,1.5241996E1,1.7431719E0,3.62861E2,1.6964758E1,1.1186146E1,2.995413E2,9.993314E0,5.248682E0],"tree_param":{"num_deleted":"0","num_feature":"9","num_nodes":"13","size_leaf_vector":"1"}},{"base_weights":[-1.6653827E-5,-1.4608383E-1,7.9417646E-2,1.6488147E-1,-2.4113244E-1,1.4269648E-2,3.7497965E-1,-4.481868E-3,2.2346505E-3,6.523477E-3,-2.6602978E-3,-2.340296E-3,8.129755E-4,5.633772E-3,-3.8479554E-4],"categories":[],"categories_nodes":[],"categories_segments":[],"categories_sizes":[],"default_left":[0,0,0,0,0,0,0,0,0,0,0,0,0,0,0],"id":11,"left_children":[1,3,5,7,9,11,13,-1,-1,-1,-1,-1,-1,-1,-1],"loss_changes":[8.232422E0,7.4270153E0,8.844175E0,2.2229168E0,4.44086E0,6.3037915E0,6.4843807E0,0E0,0E0,0E0,0E0,0E0,0E0,0E0,0E0],"parents":[2147483647,0,0,1,1,2,2,3,3,4,4,5,5,6,6],"right_children":[2,4,6,8,10,12,14,-1,-1,-1,-1,-1,-1,-1,-1],"split_conditions":[1.8009E3,2.895429E-1,2.0137448E-2,1.06959E3,1.09648E3,1.6285192E-2,2.86436E3,-4.481868E-3,2.2346505E-3,6.523477E-3,-2.6602978E-3,-2.340296E-3,8.129755E-4,5.633772E-3,-3.8479554E-4],"split_indices":[1,0,8,1,1,6,1,0,0,0,0,0,0,0,0],"split_type":[0,0,0,0,0,0,0,0,0,0,0,0,0,0,0],"sum_hessian":[7.0752386E2,2.4893413E2,4.5858972E2,5.810395E1,1.9083018E2,3.766226E2,8.196715E1,4.487944E0,5.361601E1,4.490215E0,1.8633997E2,7.9527626E1,2.9709494E2,5.6060104E1,2.5907045E1],"tree_param":{"num_deleted":"0","num_feature":"9","num_nodes":"15","size_leaf_vector":"1"}},{"base_weights":[-8.791384E-6,2.2262113E-2,-8.5636294E-1,-7.9289794E-2,1.4628081E-1,-1.0267022E0,4.647008E-3,-4.6080525E-4,-7.473589E-3,6.46743E-3,9.1991137E-4,-5.8345674E-3,-1.642455E-2],"categories":[],"categories_nodes":[],"categories_segments":[],"categories_sizes":[],"default_left":[0,0,0,0,0,0,0,0,0,0,0,0,0],"id":12,"left_children":[1,3,5,7,9,11,-1,-1,-1,-1,-1,-1,-1],"loss_changes":[1.3531787E1,8.721019E0,4.5241423E0,8.415225E0,8.408841E0,3.4746208E0,0E0,0E0,0E0,0E0,0E0,0E0,0E0],"parents":[2147483647,0,0,1,1,2,2,3,3,4,4,5,5],"right_children":[2,4,6,8,10,12,-1,-1,-1,-1,-1,-1,-1],"split_conditions":[2.0144986E-2,8.4304935E-1,3.4339625E-2,2.09993E3,-9.321411E-3,3.4221652E0,4.647008E-3,-4.6080525E-4,-7.473589E-3,6.46743E-3,9.1991137E-4,-5.8345674E-3,-1.642455E-2],"split_indices":[5,0,8,1,5,0,0,0,0,0,0,0,0],"split_type":[0,0,0,0,0,0,0,0,0,0,0,0,0],"sum_hessian":[7.0751917E2,6.9053467E2,1.6984491E1,3.798542E2,3.1068048E2,1.5241996E1,1.7424959E0,3.6288443E2,1.6969767E1,2.9336157E1,2.8134433E2,9.994834E0,5.247162E0],"tree_param":{"num_deleted":"0","num_feature":"9","num_nodes":"13","size_leaf_vector":"1"}},{"base_weights":[-3.427385E-5,2.2039281E-2,-8.488607E-1,-7.851498E-2,1.4485526E-1,-1.0178813E0,4.6183816E-3,-4.561999E-4,-7.4009015E-3,9.536267E-3,1.1161627E-3,-5.7809334E-3,-1.6292669E-2],"categories":[],"categories_nodes":[],"categories_segments":[],"categories_sizes":[],"default_left":[0,0,0,0,0,0,0,0,0,0,0,0,0],"id":13,"left_children":[1,3,5,7,9,11,-1,-1,-1,-1,-1,-1,-1],"loss_changes":[1.3293634E1,8.551405E0,4.45391E0,8.254867E0,8.27161E0,3.4249573E0,0E0,0E0,0E0,0E0,0E0,0E0,0E0],"parents":[2147483647,0,0,1,1,2,2,3,3,4,4,5,5],"right_children":[2,4,6,8,10,12,-1,-1,-1,-1,-1,-1,-1],"split_conditions":[2.0144986E-2,8.4304935E-1,3.4339625E-2,2.09993E3,-2.077348E-2,3.4221652E0,4.6183816E-3,-4.561999E-4,-7.4009015E-3,9.536267E-3,1.1161627E-3,-5.7809334E-3,-1.6292669E-2],"split_indices":[5,0,8,1,5,0,0,0,0,0,0,0,0],"split_type":[0,0,0,0,0,0,0,0,0,0,0,0,0],"sum_hessian":[7.075018E2,6.90519E2,1.6982767E1,3.798674E2,3.1065158E2,1.5240803E1,1.7419649E0,3.6289252E2,1.6974865E1,1.1170118E1,2.9948148E2,9.995958E0,5.2448444E0],"tree_param":{"num_deleted":"0","num_feature":"9","num_nodes":"13","size_leaf_vector":"1"}},{"base_weights":[-5.4542357E-5,2.1823544E-2,-8.4146523E-1,-8.579322E-2,1.34433E-1,-1.0091901E0,4.5899595E-3,-6.452239E-4,-9.708913E-3,4.777662E-4,3.7702846E-3,-5.7278853E-3,-1.6163623E-2],"categories":[],"categories_nodes":[],"categories_segments":[],"categories_sizes":[],"default_left":[0,0,0,0,0,0,0,0,0,0,0,0,0],"id":14,"left_children":[1,3,5,7,9,11,-1,-1,-1,-1,-1,-1,-1],"loss_changes":[1.3060447E1,8.391628E0,4.385043E0,6.6058044E0,7.0939355E0,3.3769646E0,0E0,0E0,0E0,0E0,0E0,0E0,0E0],"parents":[2147483647,0,0,1,1,2,2,3,3,4,4,5,5],"right_children":[2,4,6,8,10,12,-1,-1,-1,-1,-1,-1,-1],"split_conditions":[2.0144986E-2,6.2773484E-1,3.4339625E-2,2.1103E3,3.0332815E-2,3.4221652E0,4.5899595E-3,-6.452239E-4,-9.708913E-3,4.777662E-4,3.7702846E-3,-5.7278853E-3,-1.6163623E-2],"split_indices":[5,0,8,1,6,0,0,0,0,0,0,0,0],"split_type":[0,0,0,0,0,0,0,0,0,0,0,0,0],"sum_hessian":[7.074832E2,6.9050305E2,1.6980173E1,3.532004E2,3.3730264E2,1.5238754E1,1.7414188E0,3.4595917E2,7.24125E0,2.4940927E2,8.789338E1,9.996905E0,5.2418485E0],"tree_param":{"num_deleted":"0","num_feature":"9","num_nodes":"13","size_leaf_vector":"1"}},{"base_weights":[-8.695062E-5,2.159707E-2,-8.34174E-1,1.5598978E-1,-8.219108E-2,-1.0006256E0,4.5617404E-3,2.2089743E-4,3.3002757E-3,6.784088E-3,-1.1418195E-3,-5.2532405E-3,-1.5188925E-2],"categories":[],"categories_nodes":[],"categories_segments":[],"categories_sizes":[],"default_left":[0,0,0,0,0,0,0,0,0,0,0,0,0],"id":15,"left_children":[1,3,5,7,9,11,-1,-1,-1,-1,-1,-1,-1],"loss_changes":[1.2831567E1,9.657954E0,4.3175106E0,7.0225754E0,9.587109E0,3.2015228E0,0E0,0E0,0E0,0E0,0E0,0E0,0E0],"parents":[2147483647,0,0,1,1,2,2,3,3,4,4,5,5],"right_children":[2,4,6,8,10,12,-1,-1,-1,-1,-1,-1,-1],"split_conditions":[2.0144986E-2,-1.6351145E-3,3.4339625E-2,2.1024E3,-6.814694E-3,2.01343E3,4.5617404E-3,2.2089743E-4,3.3002757E-3,6.784088E-3,-1.1418195E-3,-5.2532405E-3,-1.5188925E-2],"split_indices":[5,4,8,1,5,1,0,0,0,0,0,0,0],"split_type":[0,0,0,0,0,0,0,0,0,0,0,0,0],"sum_hessian":[7.0746484E2,6.9048816E2,1.697673E1,3.0066348E2,3.8982468E2,1.5235872E1,1.7408581E0,1.7056343E2,1.3010004E2,1.491869E1,3.7490598E2,8.997709E0,6.2381625E0],"tree_param":{"num_deleted":"0","num_feature":"9","num_nodes":"13","size_leaf_vector":"1"}},{"base_weights":[-9.5510164E-5,1.5256897E-1,-1.1317388E-1,2.1870315E-2,3.2215858E-1,-1.2813514E-1,1.1198144E0,5.1059932E-3,-3.2393544E-4,1.3566653E-3,5.634711E-3,-3.4315996E-3,-3.696871E-4,1.3547043E-2,3.426538E-3],"categories":[],"categories_nodes":[],"categories_segments":[],"categories_sizes":[],"default_left":[0,0,0,0,0,0,0,0,0,0,0,0,0,0,0],"id":16,"left_children":[1,3,5,7,9,11,13,-1,-1,-1,-1,-1,-1,-1,-1],"loss_changes":[1.2247119E1,6.6841707E0,7.6617904E0,4.5664067E0,5.833276E0,7.8985534E0,4.464965E-1,0E0,0E0,0E0,0E0,0E0,0E0,0E0,0E0],"parents":[2147483647,0,0,1,1,2,2,3,3,4,4,5,5,6,6],"right_children":[2,4,6,8,10,12,14,-1,-1,-1,-1,-1,-1,-1,-1],"split_conditions":[-1.6351145E-3,2.1024E3,6.9415696E-2,1.13703E3,7.697721E-3,1.6825E3,2.09853E3,5.1059932E-3,-3.2393544E-4,1.3566653E-3,5.634711E-3,-3.4315996E-3,-3.696871E-4,1.3547043E-2,3.426538E-3],"split_indices":[4,1,8,1,7,1,1,0,0,0,0,0,0,0,0],"split_type":[0,0,0,0,0,0,0,0,0,0,0,0,0,0,0],"sum_hessian":[7.07441E2,3.0088028E2,4.065607E2,1.7056152E2,1.3031874E2,4.0257193E2,3.9887934E0,1.6204617E1,1.5435692E2,7.4390335E1,5.5928406E1,1.1904015E2,2.8353177E2,2.492355E0,1.4964381E0],"tree_param":{"num_deleted":"0","num_feature":"9","num_nodes":"15","size_leaf_vector":"1"}},{"base_weights":[-5.92081E-5,1.5109897E-1,-1.1200449E-1,1.4303931E-2,3.3176738E-1,-3.7551954E-1,-4.082021E-2,3.9342726E-3,-7.102365E-4,8.8859E-3,2.5344875E-3,-1.1079686E-2,-2.8438636E-3,-3.0514884E-3,6.23932E-4],"categories":[],"categories_nodes":[],"categories_segments":[],"categories_sizes":[],"default_left":[0,0,0,0,0,0,0,0,0,0,0,0,0,0,0],"id":17,"left_children":[1,3,5,7,9,11,13,-1,-1,-1,-1,-1,-1,-1,-1],"loss_changes":[1.2004533E1,7.4552736E0,7.630106E0,5.6188183E0,5.4449472E0,5.4629984E0,8.804396E0,0E0,0E0,0E0,0E0,0E0,0E0,0E0,0E0],"parents":[2147483647,0,0,1,1,2,2,3,3,4,4,5,5,6,6],"right_children":[2,4,6,8,10,12,14,-1,-1,-1,-1,-1,-1,-1,-1],"split_conditions":[-1.6351145E-3,8.077849E-1,-1.485758E-2,2.895429E-1,-4.4943374E-2,2.41472E8,1.6825E3,3.9342726E-3,-7.102365E-4,8.8859E-3,2.5344875E-3,-1.1079686E-2,-2.8438636E-3,-3.0514884E-3,6.23932E-4],"split_indices":[4,0,8,0,4,2,1,0,0,0,0,0,0,0,0],"split_type":[0,0,0,0,0,0,0,0,0,0,0,0,0,0,0],"sum_hessian":[7.0742706E2,3.0084732E2,4.0657977E2,1.7182632E2,1.2902098E2,8.556262E1,3.2101712E2,3.0904074E1,1.4092226E2,1.4633714E1,1.14387276E2,8.233248E0,7.732938E1,8.959884E1,2.3141829E2],"tree_param":{"num_deleted":"0","num_feature":"9","num_nodes":"15","size_leaf_vector":"1"}},{"base_weights":[-6.0807444E-5,2.134514E-2,-8.236067E-1,1.5154815E-1,-7.916274E-2,-9.881682E-1,4.519081E-3,1.4179813E-4,3.3336717E-3,6.7480975E-3,-1.1086704E-3,-5.5690175E-3,-1.5905729E-2],"categories":[],"categories_nodes":[],"categories_segments":[],"categories_sizes":[],"default_left":[0,0,0,0,0,0,0,0,0,0,0,0,0],"id":18,"left_children":[1,3,5,7,9,11,-1,-1,-1,-1,-1,-1,-1],"loss_changes":[1.2505951E1,9.060427E0,4.218899E0,7.527171E0,9.418303E0,3.3312607E0,0E0,0E0,0E0,0E0,0E0,0E0,0E0],"parents":[2147483647,0,0,1,1,2,2,3,3,4,4,5,5],"right_children":[2,4,6,8,10,12,-1,-1,-1,-1,-1,-1,-1],"split_conditions":[2.0144986E-2,-1.6351145E-3,3.4339625E-2,8.077849E-1,-6.814694E-3,3.4221652E0,4.519081E-3,1.4179813E-4,3.3336717E-3,6.7480975E-3,-1.1086704E-3,-5.5690175E-3,-1.5905729E-2],"split_indices":[5,4,8,0,5,0,0,0,0,0,0,0,0],"split_type":[0,0,0,0,0,0,0,0,0,0,0,0,0],"sum_hessian":[7.074081E2,6.904361E2,1.697202E1,3.005633E2,3.8987277E2,1.5232117E1,1.7399037E0,1.7182423E2,1.2873906E2,1.4913942E1,3.7495883E2,9.998542E0,5.2335744E0],"tree_param":{"num_deleted":"0","num_feature":"9","num_nodes":"13","size_leaf_vector":"1"}},{"base_weights":[-7.1186485E-5,2.114572E-2,-8.165565E-1,1.5006143E-1,-7.8354366E-2,-9.798952E-1,4.4913674E-3,2.117582E-4,3.1773192E-3,6.6881306E-3,-1.097558E-3,-5.102524E-3,-1.493997E-2],"categories":[],"categories_nodes":[],"categories_segments":[],"categories_sizes":[],"default_left":[0,0,0,0,0,0,0,0,0,0,0,0,0],"id":19,"left_children":[1,3,5,7,9,11,-1,-1,-1,-1,-1,-1,-1],"loss_changes":[1.2288733E1,8.880596E0,4.1544905E0,6.509407E0,9.2443695E0,3.1557007E0,0E0,0E0,0E0,0E0,0E0,0E0,0E0],"parents":[2147483647,0,0,1,1,2,2,3,3,4,4,5,5],"right_children":[2,4,6,8,10,12,-1,-1,-1,-1,-1,-1,-1],"split_conditions":[2.0144986E-2,-1.6351145E-3,3.4339625E-2,2.1024E3,-6.814694E-3,2.01343E3,4.4913674E-3,2.117582E-4,3.1773192E-3,6.6881306E-3,-1.097558E-3,-5.102524E-3,-1.493997E-2],"split_indices":[5,4,8,1,5,1,0,0,0,0,0,0,0],"split_type":[0,0,0,0,0,0,0,0,0,0,0,0,0],"sum_hessian":[7.073796E2,6.9041284E2,1.6966728E1,3.0052902E2,3.8988382E2,1.5227422E1,1.7393069E0,1.7055354E2,1.2997548E2,1.4906191E1,3.7497763E2,8.999084E0,6.2283373E0],"tree_param":{"num_deleted":"0","num_feature":"9","num_nodes":"13","size_leaf_vector":"1"}},{"base_weights":[-7.970736E-5,2.0948058E-2,-8.095275E-1,1.4858875E-1,-7.7554405E-2,-9.716546E-1,4.463849E-3,1.3704425E-4,3.2720575E-3,6.628809E-3,-1.0865584E-3,-5.4629752E-3,-1.5672704E-2],"categories":[],"categories_nodes":[],"categories_segments":[],"categories_sizes":[],"default_left":[0,0,0,0,0,0,0,0,0,0,0,0,0],"id":20,"left_children":[1,3,5,7,9,11,-1,-1,-1,-1,-1,-1,-1],"loss_changes":[1.2073704E1,8.704313E0,4.0908556E0,7.259334E0,9.073775E0,3.2536545E0,0E0,0E0,0E0,0E0,0E0,0E0,0E0],"parents":[2147483647,0,0,1,1,2,2,3,3,4,4,5,5],"right_children":[2,4,6,8,10,12,-1,-1,-1,-1,-1,-1,-1],"split_conditions":[2.0144986E-2,-1.6351145E-3,3.4339625E-2,8.077849E-1,-6.814694E-3,3.4221652E0,4.463849E-3,1.3704425E-4,3.2720575E-3,6.628809E-3,-1.0865584E-3,-5.4629752E-3,-1.5672704E-2],"split_indices":[5,4,8,0,5,0,0,0,0,0,0,0,0],"split_type":[0,0,0,0,0,0,0,0,0,0,0,0,0],"sum_hessian":[7.073504E2,6.9038965E2,1.6960762E1,3.0049545E2,3.8989417E2,1.5222065E1,1.7386967E0,1.7182039E2,1.2867508E2,1.489818E1,3.74996E2,9.998715E0,5.22335E0],"tree_param":{"num_deleted":"0","num_feature":"9","num_nodes":"13","size_leaf_vector":"1"}},{"base_weights":[-8.972236E-5,2.0752441E-2,-8.026673E-1,-8.181825E-2,1.2815627E-1,-3.3904883E-1,-1.3115082E0,-6.0654694E-4,-9.628039E-3,4.3087485E-4,3.664673E-3,-7.999352E-3,5.5510877E-3,-1.4768839E-2,-2.1330647E-3],"categories":[],"categories_nodes":[],"categories_segments":[],"categories_sizes":[],"default_left":[0,0,0,0,0,0,0,0,0,0,0,0,0,0,0],"id":21,"left_children":[1,3,5,7,9,11,13,-1,-1,-1,-1,-1,-1,-1,-1],"loss_changes":[1.186502E1,7.626891E0,3.7908154E0,6.546507E0,6.8387594E0,4.8713317E0,1.1761961E0,0E0,0E0,0E0,0E0,0E0,0E0,0E0,0E0],"parents":[2147483647,0,0,1,1,2,2,3,3,4,4,5,5,6,6],"right_children":[2,4,6,8,10,12,14,-1,-1,-1,-1,-1,-1,-1,-1],"split_conditions":[2.0144986E-2,6.2773484E-1,8.077849E-1,2.1103E3,3.0332815E-2,3.394864E-1,7.8339343E0,-6.0654694E-4,-9.628039E-3,4.3087485E-4,3.664673E-3,-7.999352E-3,5.5510877E-3,-1.4768839E-2,-2.1330647E-3],"split_indices":[5,0,0,1,6,0,0,0,0,0,0,0,0,0,0],"split_type":[0,0,0,0,0,0,0,0,0,0,0,0,0,0,0],"sum_hessian":[7.0731836E2,6.9036444E2,1.6953953E1,3.5324936E2,3.3711505E2,9.743085E0,7.2108684E0,3.4600626E2,7.243117E0,2.4930324E2,8.7811806E1,6.4987373E0,3.244347E0,5.9674263E0,1.243442E0],"tree_param":{"num_deleted":"0","num_feature":"9","num_nodes":"15","size_leaf_vector":"1"}},{"base_weights":[-1.2475303E-4,2.0536661E-2,-7.959904E-1,1.4697479E-1,-7.7022515E-2,-3.3590278E-1,-1.3013366E0,1.4275846E-4,3.2276202E-3,6.563505E-3,-1.0780755E-3,-7.930144E-3,5.5092047E-3,-1.4654036E-2,-2.1212643E-3],"categories":[],"categories_nodes":[],"categories_segments":[],"categories_sizes":[],"default_left":[0,0,0,0,0,0,0,0,0,0,0,0,0,0,0],"id":22,"left_children":[1,3,5,7,9,11,13,-1,-1,-1,-1,-1,-1,-1,-1],"loss_changes":[1.1663349E1,8.5392275E0,3.7358198E0,7.0272846E0,8.895987E0,4.791674E0,1.1554651E0,0E0,0E0,0E0,0E0,0E0,0E0,0E0,0E0],"parents":[2147483647,0,0,1,1,2,2,3,3,4,4,5,5,6,6],"right_children":[2,4,6,8,10,12,14,-1,-1,-1,-1,-1,-1,-1,-1],"split_conditions":[2.0144986E-2,-1.6351145E-3,8.077849E-1,8.077849E-1,-6.814694E-3,3.394864E-1,7.8339343E0,1.4275846E-4,3.2276202E-3,6.563505E-3,-1.0780755E-3,-7.930144E-3,5.5092047E-3,-1.4654036E-2,-2.1212643E-3],"split_indices":[5,4,0,0,5,0,0,0,0,0,0,0,0,0,0],"split_type":[0,0,0,0,0,0,0,0,0,0,0,0,0,0,0],"sum_hessian":[7.072953E2,6.903474E2,1.6947866E1,3.0045145E2,3.89896E2,9.742553E0,7.2053146E0,1.7182484E2,1.2862659E2,1.4888801E1,3.7500717E2,6.4986267E0,3.2439258E0,5.961897E0,1.2434177E0],"tree_param":{"num_deleted":"0","num_feature":"9","num_nodes":"15","size_leaf_vector":"1"}},{"base_weights":[-1.3811876E-4,1.4365661E-1,-1.0656117E-1,1.4133884E-2,3.149496E-1,-1.2138262E-1,1.1143982E0,3.8967538E-3,-7.036645E-4,8.679194E-3,2.3736E-3,-3.316772E-3,-3.220676E-4,3.4067344E-3,1.3484309E-2],"categories":[],"categories_nodes":[],"categories_segments":[],"categories_sizes":[],"default_left":[0,0,0,0,0,0,0,0,0,0,0,0,0,0,0],"id":23,"left_children":[1,3,5,7,9,11,13,-1,-1,-1,-1,-1,-1,-1,-1],"loss_changes":[1.0853893E1,6.688391E0,7.511301E0,5.5116987E0,5.3647995E0,7.5583E0,4.4361496E-1,0E0,0E0,0E0,0E0,0E0,0E0,0E0,0E0],"parents":[2147483647,0,0,1,1,2,2,3,3,4,4,5,5,6,6],"right_children":[2,4,6,8,10,12,14,-1,-1,-1,-1,-1,-1,-1,-1],"split_conditions":[-1.6351145E-3,8.077849E-1,6.9415696E-2,2.895429E-1,-4.4943374E-2,1.6825E3,3.5207E9,3.8967538E-3,-7.036645E-4,8.679194E-3,2.3736E-3,-3.316772E-3,-3.220676E-4,3.4067344E-3,1.3484309E-2],"split_indices":[4,0,8,0,4,1,3,0,0,0,0,0,0,0,0],"split_type":[0,0,0,0,0,0,0,0,0,0,0,0,0,0,0],"sum_hessian":[7.07262E2,3.0066507E2,4.0659695E2,1.7182362E2,1.2884145E2,4.0261017E2,3.986773E0,3.0897144E1,1.4092648E2,1.4600413E1,1.14241035E2,1.1907888E2,2.8353128E2,1.4961352E0,2.4906378E0],"tree_param":{"num_deleted":"0","num_feature":"9","num_nodes":"15","size_leaf_vector":"1"}},{"base_weights":[-9.768561E-5,2.035252E-2,-7.881111E-1,1.4416315E-1,-7.51507E-2,-9.4842684E-1,4.4814083E-3,1.4011329E-4,3.166648E-3,6.5181353E-3,-1.0565412E-3,-5.3021684E-3,-1.5366983E-2],"categories":[],"categories_nodes":[],"categories_segments":[],"categories_sizes":[],"default_left":[0,0,0,0,0,0,0,0,0,0,0,0,0],"id":24,"left_children":[1,3,5,7,9,11,-1,-1,-1,-1,-1,-1,-1],"loss_changes":[1.1429352E1,8.184977E0,3.980609E0,6.7619348E0,8.737503E0,3.171174E0,0E0,0E0,0E0,0E0,0E0,0E0,0E0],"parents":[2147483647,0,0,1,1,2,2,3,3,4,4,5,5],"right_children":[2,4,6,8,10,12,-1,-1,-1,-1,-1,-1,-1],"split_conditions":[2.0144986E-2,-1.6351145E-3,3.4339625E-2,8.077849E-1,-6.814694E-3,3.4221652E0,4.4814083E-3,1.4011329E-4,3.166648E-3,6.5181353E-3,-1.0565412E-3,-5.3021684E-3,-1.5366983E-2],"split_indices":[5,4,8,0,5,0,0,0,0,0,0,0,0],"split_type":[0,0,0,0,0,0,0,0,0,0,0,0,0],"sum_hessian":[7.072398E2,6.902996E2,1.6940205E1,3.0037857E2,3.8992105E2,1.5201688E1,1.7385168E0,1.718213E2,1.2855727E2,1.4881979E1,3.7503906E2,9.996416E0,5.2052717E0],"tree_param":{"num_deleted":"0","num_feature":"9","num_nodes":"13","size_leaf_vector":"1"}},{"base_weights":[-1.071419E-4,2.0162627E-2,-7.81518E-1,1.4274976E-1,-7.438358E-2,-9.4069606E-1,4.453964E-3,2.0467072E-4,3.0203424E-3,6.460621E-3,-1.0459569E-3,-4.8665646E-3,-1.4408178E-2],"categories":[],"categories_nodes":[],"categories_segments":[],"categories_sizes":[],"default_left":[0,0,0,0,0,0,0,0,0,0,0,0,0],"id":25,"left_children":[1,3,5,7,9,11,-1,-1,-1,-1,-1,-1,-1],"loss_changes":[1.1233E1,8.022559E0,3.9209518E0,5.863289E0,8.576612E0,2.9759626E0,0E0,0E0,0E0,0E0,0E0,0E0,0E0],"parents":[2147483647,0,0,1,1,2,2,3,3,4,4,5,5],"right_children":[2,4,6,8,10,12,-1,-1,-1,-1,-1,-1,-1],"split_conditions":[2.0144986E-2,-1.6351145E-3,3.4339625E-2,2.1024E3,-6.814694E-3,2.01343E3,4.453964E-3,2.0467072E-4,3.0203424E-3,6.460621E-3,-1.0459569E-3,-4.8665646E-3,-1.4408178E-2],"split_indices":[5,4,8,1,5,1,0,0,0,0,0,0,0],"split_type":[0,0,0,0,0,0,0,0,0,0,0,0,0],"sum_hessian":[7.072032E2,6.902717E2,1.6931425E1,3.0034253E2,3.8992923E2,1.5193524E1,1.7379018E0,1.7054425E2,1.2979828E2,1.4873264E1,3.7505597E2,8.99784E0,6.1956844E0],"tree_param":{"num_deleted":"0","num_feature":"9","num_nodes":"13","size_leaf_vector":"1"}},{"base_weights":[-1.147697E-4,-1.0359243E0,9.823565E-3,1.7705525E-3,-1.3438042E0,-1.3082626E-1,7.6625876E-2,-1.5663827E-2,-4.497717E-3,1.6872995E-3,-2.351406E-3,2.0420406E-4,3.3993481E-3],"categories":[],"categories_nodes":[],"categories_segments":[],"categories_sizes":[],"default_left":[0,0,0,0,0,0,0,0,0,0,0,0,0],"id":26,"left_children":[1,3,5,-1,7,9,11,-1,-1,-1,-1,-1,-1],"loss_changes":[7.3001976E0,2.754807E0,6.60984E0,0E0,3.8826752E-1,7.1192245E0,7.0504017E0,0E0,0E0,0E0,0E0,0E0,0E0],"parents":[2147483647,0,0,1,1,2,2,4,4,5,5,6,6],"right_children":[2,4,6,-1,8,10,12,-1,-1,-1,-1,-1,-1],"split_conditions":[8.643236E-3,-8.059759E-3,1.6825E3,1.7705525E-3,2.90968E8,2.895429E-1,2.0137448E-2,-1.5663827E-2,-4.497717E-3,1.6872995E-3,-2.351406E-3,2.0420406E-4,3.3993481E-3],"split_indices":[6,8,1,0,2,0,8,0,0,0,0,0,0],"split_type":[0,0,0,0,0,0,0,0,0,0,0,0,0],"sum_hessian":[7.071663E2,5.739499E0,7.014268E2,1.2479135E0,4.4915857E0,2.2556001E2,4.758668E2,2.9941258E0,1.4974601E0,5.809963E1,1.6746039E2,3.9304553E2,8.2821266E1],"tree_param":{"num_deleted":"0","num_feature":"9","num_nodes":"13","size_leaf_vector":"1"}},{"base_weights":[-1.3532644E-4,1.9954396E-2,-7.749752E-1,1.4133061E-1,-7.364388E-2,-9.327311E-1,4.4110143E-3,1.4245544E-4,3.0986697E-3,6.404596E-3,-1.0357198E-3,-5.1951604E-3,-1.5159766E-2],"categories":[],"categories_nodes":[],"categories_segments":[],"categories_sizes":[],"default_left":[0,0,0,0,0,0,0,0,0,0,0,0,0],"id":27,"left_children":[1,3,5,7,9,11,-1,-1,-1,-1,-1,-1,-1],"loss_changes":[1.1038838E1,7.8632402E0,3.8496141E0,6.448976E0,8.421263E0,3.1130981E0,0E0,0E0,0E0,0E0,0E0,0E0,0E0],"parents":[2147483647,0,0,1,1,2,2,3,3,4,4,5,5],"right_children":[2,4,6,8,10,12,-1,-1,-1,-1,-1,-1,-1],"split_conditions":[2.0144986E-2,-1.6351145E-3,3.4339625E-2,8.077849E-1,-6.814694E-3,3.4221652E0,4.4110143E-3,1.4245544E-4,3.0986697E-3,6.404596E-3,-1.0357198E-3,-5.1951604E-3,-1.5159766E-2],"split_indices":[5,4,8,0,5,0,0,0,0,0,0,0,0],"split_type":[0,0,0,0,0,0,0,0,0,0,0,0,0],"sum_hessian":[7.071556E2,6.902337E2,1.6921843E1,3.0030054E2,3.899332E2,1.5184968E1,1.7368749E0,1.7182225E2,1.2847829E2,1.4864192E1,3.75069E2,9.994702E0,5.1902657E0],"tree_param":{"num_deleted":"0","num_feature":"9","num_nodes":"13","size_leaf_vector":"1"}},{"base_weights":[-1.443027E-4,1.3805652E-1,-1.0237402E-1,1.4104048E-2,3.0216533E-1,-1.1706247E-1,1.1076139E0,3.8392895E-3,-6.9077447E-4,8.514352E-3,2.2524905E-3,-3.589786E-3,-5.086325E-4,3.3907744E-3,1.33998785E-2],"categories":[],"categories_nodes":[],"categories_segments":[],"categories_sizes":[],"default_left":[0,0,0,0,0,0,0,0,0,0,0,0,0,0,0],"id":28,"left_children":[1,3,5,7,9,11,13,-1,-1,-1,-1,-1,-1,-1,-1],"loss_changes":[1.0018558E1,6.1290164E0,7.373929E0,5.342943E0,5.2874002E0,6.445559E0,4.35771E-1,0E0,0E0,0E0,0E0,0E0,0E0,0E0,0E0],"parents":[2147483647,0,0,1,1,2,2,3,3,4,4,5,5,6,6],"right_children":[2,4,6,8,10,12,14,-1,-1,-1,-1,-1,-1,-1,-1],"split_conditions":[-1.6351145E-3,8.077849E-1,6.9415696E-2,2.895429E-1,-4.4943374E-2,-1.485758E-2,3.5207E9,3.8392895E-3,-6.9077447E-4,8.514352E-3,2.2524905E-3,-3.589786E-3,-5.086325E-4,3.3907744E-3,1.33998785E-2],"split_indices":[4,0,8,0,4,8,3,0,0,0,0,0,0,0,0],"split_type":[0,0,0,0,0,0,0,0,0,0,0,0,0,0,0],"sum_hessian":[7.071158E2,3.0051266E2,4.0660312E2,1.7182104E2,1.2869162E2,4.0261884E2,3.984273E0,3.088606E1,1.4093498E2,1.45706835E1,1.1412093E2,8.555326E1,3.1706558E2,1.4959308E0,2.488342E0],"tree_param":{"num_deleted":"0","num_feature":"9","num_nodes":"15","size_leaf_vector":"1"}},{"base_weights":[-1.0512128E-4,1.9768255E-2,-7.6707166E-1,1.3862996E-1,-7.1863085E-2,-9.2336565E-1,4.372936E-3,1.3981483E-4,3.040229E-3,6.3581453E-3,-1.015083E-3,-5.131255E-3,-1.5037106E-2],"categories":[],"categories_nodes":[],"categories_segments":[],"categories_sizes":[],"default_left":[0,0,0,0,0,0,0,0,0,0,0,0,0],"id":29,"left_children":[1,3,5,7,9,11,-1,-1,-1,-1,-1,-1,-1],"loss_changes":[1.0808031E1,7.5379305E0,3.7749805E0,6.205792E0,8.266514E0,3.0790548E0,0E0,0E0,0E0,0E0,0E0,0E0,0E0],"parents":[2147483647,0,0,1,1,2,2,3,3,4,4,5,5],"right_children":[2,4,6,8,10,12,-1,-1,-1,-1,-1,-1,-1],"split_conditions":[2.0144986E-2,-1.6351145E-3,3.4339625E-2,8.077849E-1,-6.814694E-3,3.4221652E0,4.372936E-3,1.3981483E-4,3.040229E-3,6.3581453E-3,-1.015083E-3,-5.131255E-3,-1.5037106E-2],"split_indices":[5,4,8,0,5,0,0,0,0,0,0,0,0],"split_type":[0,0,0,0,0,0,0,0,0,0,0,0,0],"sum_hessian":[7.070905E2,6.9018097E2,1.690951E1,3.002247E2,3.899563E2,1.5173694E1,1.7358171E0,1.718183E2,1.284064E2,1.4856684E1,3.750996E2,9.993535E0,5.1801586E0],"tree_param":{"num_deleted":"0","num_feature":"9","num_nodes":"13","size_leaf_vector":"1"}},{"base_weights":[-1.14297276E-4,-1.0273875E0,9.74675E-3,1.7677909E-3,-1.3330948E0,-1.2832533E-1,7.534407E-2,-1.5537826E-2,-4.4634053E-3,1.7327955E-4,-3.3730133E-3,2.0167227E-4,3.3394177E-3],"categories":[],"categories_nodes":[],"categories_segments":[],"categories_sizes":[],"default_left":[0,0,0,0,0,0,0,0,0,0,0,0,0],"id":30,"left_children":[1,3,5,-1,7,9,11,-1,-1,-1,-1,-1,-1],"loss_changes":[7.1825385E0,2.7173648E0,6.3705754E0,0E0,3.815632E-1,6.902107E0,6.795678E0,0E0,0E0,0E0,0E0,0E0,0E0],"parents":[2147483647,0,0,1,1,2,2,4,4,5,5,6,6],"right_children":[2,4,6,-1,8,10,12,-1,-1,-1,-1,-1,-1],"split_conditions":[8.643236E-3,-8.059759E-3,1.6825E3,1.7677909E-3,2.90968E8,3.3516383E-1,2.0137448E-2,-1.5537826E-2,-4.4634053E-3,1.7327955E-4,-3.3730133E-3,2.0167227E-4,3.3394177E-3],"split_indices":[6,8,1,0,2,0,8,0,0,0,0,0,0],"split_type":[0,0,0,0,0,0,0,0,0,0,0,0,0],"sum_hessian":[7.070486E2,5.7415066E0,7.0130707E2,1.2478845E0,4.493622E0,2.2556721E2,4.7573987E2,2.995831E0,1.4977908E0,1.334627E2,9.2104515E1,3.9297006E2,8.276981E1],"tree_param":{"num_deleted":"0","num_feature":"9","num_nodes":"13","size_leaf_vector":"1"}},{"base_weights":[-1.3834472E-4,1.9567948E-2,-7.6107526E-1,1.372618E-1,-7.114927E-2,-3.1292865E-1,-1.2573692E0,1.4540326E-4,3.001559E-3,6.30263E-3,-1.0051347E-3,-7.647649E-3,5.592691E-3,-1.41866915E-2,-1.9690793E-3],"categories":[],"categories_nodes":[],"categories_segments":[],"categories_sizes":[],"default_left":[0,0,0,0,0,0,0,0,0,0,0,0,0,0,0],"id":31,"left_children":[1,3,5,7,9,11,13,-1,-1,-1,-1,-1,-1,-1,-1],"loss_changes":[1.0632081E1,7.3889527E0,3.5873833E0,6.016413E0,8.115684E0,4.6589894E0,1.1167307E0,0E0,0E0,0E0,0E0,0E0,0E0,0E0,0E0],"parents":[2147483647,0,0,1,1,2,2,3,3,4,4,5,5,6,6],"right_children":[2,4,6,8,10,12,14,-1,-1,-1,-1,-1,-1,-1,-1],"split_conditions":[2.0144986E-2,-1.6351145E-3,8.077849E-1,8.077849E-1,-6.814694E-3,3.394864E-1,7.8339343E0,1.4540326E-4,3.001559E-3,6.30263E-3,-1.0051347E-3,-7.647649E-3,5.592691E-3,-1.41866915E-2,-1.9690793E-3],"split_indices":[5,4,0,0,5,0,0,0,0,0,0,0,0,0,0],"split_type":[0,0,0,0,0,0,0,0,0,0,0,0,0,0,0],"sum_hessian":[7.070369E2,6.901384E2,1.689851E1,3.001803E2,3.8995813E2,9.736823E0,7.161687E0,1.7182199E2,1.2835829E2,1.4847096E1,3.7511105E2,6.495202E0,3.2416215E0,5.9229927E0,1.2386941E0],"tree_param":{"num_deleted":"0","num_feature":"9","num_nodes":"15","size_leaf_vector":"1"}},{"base_weights":[-1.5073849E-4,1.9385498E-2,-7.5491035E-1,-1.0195528E0,2.9578937E-2,-3.1003428E-1,-1.248094E0,-1.5099514E-2,-3.0456018E-3,1.4653814E-3,-6.0187705E-4,-6.289406E-3,8.493106E-3,-1.3671263E-2,-5.1189926E-3],"categories":[],"categories_nodes":[],"categories_segments":[],"categories_sizes":[],"default_left":[0,0,0,0,0,0,0,0,0,0,0,0,0,0,0],"id":32,"left_children":[1,3,5,7,9,11,13,-1,-1,-1,-1,-1,-1,-1,-1],"loss_changes":[1.0454135E1,7.3492203E0,3.5378714E0,1.904449E0,7.2044744E0,4.5032578E0,1.4634132E-2,0E0,0E0,0E0,0E0,0E0,0E0,0E0,0E0],"parents":[2147483647,0,0,1,1,2,2,3,3,4,4,5,5,6,6],"right_children":[2,4,6,8,10,12,14,-1,-1,-1,-1,-1,-1,-1,-1],"split_conditions":[2.0144986E-2,8.643236E-3,2.0635E3,2.36724E8,-1.6351145E-3,1.92021E3,2.94303E3,-1.5099514E-2,-3.0456018E-3,1.4653814E-3,-6.0187705E-4,-6.289406E-3,8.493106E-3,-1.3671263E-2,-5.1189926E-3],"split_indices":[5,6,1,2,4,1,1,0,0,0,0,0,0,0,0],"split_type":[0,0,0,0,0,0,0,0,0,0,0,0,0,0,0],"sum_hessian":[7.06995E2,6.901065E2,1.6888437E1,5.743034E0,6.843635E2,9.735327E0,7.15311E0,2.7470484E0,2.9959853E0,2.9689682E2,3.8746667E2,7.993909E0,1.7414181E0,5.419789E0,1.7333214E0],"tree_param":{"num_deleted":"0","num_feature":"9","num_nodes":"15","size_leaf_vector":"1"}},{"base_weights":[-1.9709188E-4,1.9167235E-2,-7.4873704E-1,-1.0118434E0,2.9285336E-2,-9.032759E-1,4.3712305E-3,1.7898607E-3,-1.31481765E-2,1.4509247E-3,-5.958582E-4,-4.634241E-3,-1.3917154E-2],"categories":[],"categories_nodes":[],"categories_segments":[],"categories_sizes":[],"default_left":[0,0,0,0,0,0,0,0,0,0,0,0,0],"id":33,"left_children":[1,3,5,7,9,11,-1,-1,-1,-1,-1,-1,-1],"loss_changes":[1.0276288E1,7.238967E0,3.671154E0,2.6686468E0,7.0621376E0,2.823164E0,0E0,0E0,0E0,0E0,0E0,0E0,0E0],"parents":[2147483647,0,0,1,1,2,2,3,3,4,4,5,5],"right_children":[2,4,6,8,10,12,-1,-1,-1,-1,-1,-1,-1],"split_conditions":[2.0144986E-2,8.643236E-3,3.4339625E-2,-8.059759E-3,-1.6351145E-3,2.01343E3,4.3712305E-3,1.7898607E-3,-1.31481765E-2,1.4509247E-3,-5.958582E-4,-4.634241E-3,-1.3917154E-2],"split_indices":[5,6,8,8,4,1,0,0,0,0,0,0,0],"split_type":[0,0,0,0,0,0,0,0,0,0,0,0,0],"sum_hessian":[7.069653E2,6.9008746E2,1.6877798E1,5.7443905E0,6.843431E2,1.5142725E1,1.735074E0,1.2480828E0,4.496308E0,2.9686658E2,3.8747653E2,8.993049E0,6.149676E0],"tree_param":{"num_deleted":"0","num_feature":"9","num_nodes":"13","size_leaf_vector":"1"}},{"base_weights":[-2.300562E-4,1.8960945E-2,-7.425642E-1,-1.0032284E0,2.8994638E-2,-8.960512E-1,4.3445644E-3,1.7799933E-3,-1.3037531E-2,1.436611E-3,-5.899004E-4,-4.5929537E-3,-1.3818582E-2],"categories":[],"categories_nodes":[],"categories_segments":[],"categories_sizes":[],"default_left":[0,0,0,0,0,0,0,0,0,0,0,0,0],"id":34,"left_children":[1,3,5,7,9,11,-1,-1,-1,-1,-1,-1,-1],"loss_changes":[1.0099397E1,7.1169133E0,3.6168013E0,2.6266742E0,6.9226193E0,2.7879667E0,0E0,0E0,0E0,0E0,0E0,0E0,0E0],"parents":[2147483647,0,0,1,1,2,2,3,3,4,4,5,5],"right_children":[2,4,6,8,10,12,-1,-1,-1,-1,-1,-1,-1],"split_conditions":[2.0144986E-2,8.643236E-3,3.4339625E-2,-8.059759E-3,-1.6351145E-3,2.01343E3,4.3445644E-3,1.7799933E-3,-1.3037531E-2,1.436611E-3,-5.899004E-4,-4.5929537E-3,-1.3818582E-2],"split_indices":[5,6,8,8,4,1,0,0,0,0,0,0,0],"split_type":[0,0,0,0,0,0,0,0,0,0,0,0,0],"sum_hessian":[7.069334E2,6.9006805E2,1.6865349E1,5.7455964E0,6.843225E2,1.5130941E1,1.7344077E0,1.2479945E0,4.4976015E0,2.968363E2,3.8748618E2,8.992146E0,6.1387954E0],"tree_param":{"num_deleted":"0","num_feature":"9","num_nodes":"13","size_leaf_vector":"1"}},{"base_weights":[-2.6241952E-4,1.8756848E-2,-7.3646736E-1,7.19687E-3,8.7713253E-1,-8.889175E-1,4.3180836E-3,-1.0590052E-4,5.907692E-3,1.1061751E-2,1.8598684E-3,-4.896597E-3,-1.4588796E-2],"categories":[],"categories_nodes":[],"categories_segments":[],"categories_sizes":[],"default_left":[0,0,0,0,0,0,0,0,0,0,0,0,0],"id":35,"left_children":[1,3,5,7,9,11,-1,-1,-1,-1,-1,-1,-1],"loss_changes":[9.925891E0,6.8508224E0,3.5634098E0,7.094454E0,1.2466216E0,2.953621E0,0E0,0E0,0E0,0E0,0E0,0E0,0E0],"parents":[2147483647,0,0,1,1,2,2,3,3,4,4,5,5],"right_children":[2,4,6,8,10,12,-1,-1,-1,-1,-1,-1,-1],"split_conditions":[2.0144986E-2,2.6849596E-2,3.4339625E-2,1.4985846E-2,7.1027946E0,3.4221652E0,4.3180836E-3,-1.0590052E-4,5.907692E-3,1.1061751E-2,1.8598684E-3,-4.896597E-3,-1.4588796E-2],"split_indices":[5,7,8,5,0,0,0,0,0,0,0,0,0],"split_type":[0,0,0,0,0,0,0,0,0,0,0,0,0],"sum_hessian":[7.0690045E2,6.9004816E2,1.6852322E1,6.8187354E2,8.174591E0,1.5118592E1,1.7337294E0,6.62658E2,1.921555E1,5.6888394E0,2.4857516E0,9.983953E0,5.134639E0],"tree_param":{"num_deleted":"0","num_feature":"9","num_nodes":"13","size_leaf_vector":"1"}},{"base_weights":[-2.548528E-4,1.8596621E-2,-7.305126E-1,1.3189201E-1,-6.868496E-2,-8.8194776E-1,4.2917873E-3,1.07317464E-4,2.9282507E-3,6.2664277E-3,-9.778386E-4,-4.8527895E-3,-1.4493545E-2],"categories":[],"categories_nodes":[],"categories_segments":[],"categories_sizes":[],"default_left":[0,0,0,0,0,0,0,0,0,0,0,0,0],"id":36,"left_children":[1,3,5,7,9,11,-1,-1,-1,-1,-1,-1,-1],"loss_changes":[9.758562E0,6.842484E0,3.5113182E0,5.866948E0,7.972287E0,2.921609E0,0E0,0E0,0E0,0E0,0E0,0E0,0E0],"parents":[2147483647,0,0,1,1,2,2,3,3,4,4,5,5],"right_children":[2,4,6,8,10,12,-1,-1,-1,-1,-1,-1,-1],"split_conditions":[2.0144986E-2,-1.6351145E-3,3.4339625E-2,8.077849E-1,-6.814694E-3,3.4221652E0,4.2917873E-3,1.07317464E-4,2.9282507E-3,6.2664277E-3,-9.778386E-4,-4.8527895E-3,-1.4493545E-2],"split_indices":[5,4,8,0,5,0,0,0,0,0,0,0,0],"split_type":[0,0,0,0,0,0,0,0,0,0,0,0,0],"sum_hessian":[7.068794E2,6.9004065E2,1.6838743E1,3.0005057E2,3.899901E2,1.5105704E1,1.7330395E0,1.7178613E2,1.2826443E2,1.4840347E1,3.7514975E2,9.982376E0,5.123328E0],"tree_param":{"num_deleted":"0","num_feature":"9","num_nodes":"13","size_leaf_vector":"1"}},{"base_weights":[-2.617781E-4,1.8423762E-2,-7.2462976E-1,-1.4483024E-1,8.050738E-2,-8.7506396E-1,4.2656725E-3,-1.8872459E-3,7.909982E-3,-1.0176738E-3,1.5530168E-3,-4.465427E-3,-1.3544479E-2],"categories":[],"categories_nodes":[],"categories_segments":[],"categories_sizes":[],"default_left":[0,0,0,0,0,0,0,0,0,0,0,0,0],"id":37,"left_children":[1,3,5,7,9,11,-1,-1,-1,-1,-1,-1,-1],"loss_changes":[9.594006E0,7.015297E0,3.4601316E0,7.984393E0,6.8496504E0,2.7009583E0,0E0,0E0,0E0,0E0,0E0,0E0,0E0],"parents":[2147483647,0,0,1,1,2,2,3,3,4,4,5,5],"right_children":[2,4,6,8,10,12,-1,-1,-1,-1,-1,-1,-1],"split_conditions":[2.0144986E-2,1.7433388E-2,3.4339625E-2,1.2289184E-2,1.38781E3,2.01343E3,4.2656725E-3,-1.8872459E-3,7.909982E-3,-1.0176738E-3,1.5530168E-3,-4.465427E-3,-1.3544479E-2],"split_indices":[5,6,8,5,1,1,0,0,0,0,0,0,0],"split_type":[0,0,0,0,0,0,0,0,0,0,0,0,0],"sum_hessian":[7.0683215E2,6.900075E2,1.6824625E1,1.8973936E2,5.0026816E2,1.5092286E1,1.7323383E0,1.8200108E2,7.738293E0,1.4544823E2,3.5481995E2,8.988744E0,6.1035423E0],"tree_param":{"num_deleted":"0","num_feature":"9","num_nodes":"13","size_leaf_vector":"1"}},{"base_weights":[-2.693838E-4,1.2869065E-1,-9.55942E-2,1.7539289E-2,2.735093E-1,-1.1012013E-1,1.1005578E0,4.958517E-3,-3.5508524E-4,9.1219123E-4,5.104208E-3,-3.149307E-3,-2.325671E-4,1.3348956E-2,3.3201003E-3],"categories":[],"categories_nodes":[],"categories_segments":[],"categories_sizes":[],"default_left":[0,0,0,0,0,0,0,0,0,0,0,0,0,0,0],"id":38,"left_children":[1,3,5,7,9,11,13,-1,-1,-1,-1,-1,-1,-1,-1],"loss_changes":[8.713387E0,4.8444295E0,7.202442E0,4.369338E0,5.5999613E0,7.1723685E0,4.5384264E-1,0E0,0E0,0E0,0E0,0E0,0E0,0E0,0E0],"parents":[2147483647,0,0,1,1,2,2,3,3,4,4,5,5,6,6],"right_children":[2,4,6,8,10,12,14,-1,-1,-1,-1,-1,-1,-1,-1],"split_conditions":[-1.6351145E-3,2.1024E3,6.9415696E-2,1.13703E3,7.697721E-3,1.6825E3,2.09853E3,4.958517E-3,-3.5508524E-4,9.1219123E-4,5.104208E-3,-3.149307E-3,-2.325671E-4,1.3348956E-2,3.3201003E-3],"split_indices":[4,1,8,1,7,1,1,0,0,0,0,0,0,0,0],"split_type":[0,0,0,0,0,0,0,0,0,0,0,0,0,0,0],"sum_hessian":[7.068029E2,3.0025433E2,4.065486E2,1.705074E2,1.2974692E2,4.025678E2,3.9808002E0,1.6189095E1,1.5431831E2,7.410912E1,5.5637787E1,1.1910678E2,2.8346103E2,2.4859135E0,1.4948866E0],"tree_param":{"num_deleted":"0","num_feature":"9","num_nodes":"15","size_leaf_vector":"1"}},{"base_weights":[-2.3273188E-4,1.2745535E-1,-9.460332E-2,1.1065432E-2,2.8185207E-1,-1.0902392E-1,1.0934931E0,3.751045E-3,-7.075659E-4,8.26779E-3,2.0579714E-3,-3.448913E-3,-4.4527464E-4,3.3249636E-3,1.3246581E-2],"categories":[],"categories_nodes":[],"categories_segments":[],"categories_sizes":[],"default_left":[0,0,0,0,0,0,0,0,0,0,0,0,0,0,0],"id":39,"left_children":[1,3,5,7,9,11,13,-1,-1,-1,-1,-1,-1,-1,-1],"loss_changes":[8.540742E0,5.4098067E0,7.10194E0,5.1732755E0,5.1939297E0,6.124151E0,4.3528414E-1,0E0,0E0,0E0,0E0,0E0,0E0,0E0,0E0],"parents":[2147483647,0,0,1,1,2,2,3,3,4,4,5,5,6,6],"right_children":[2,4,6,8,10,12,14,-1,-1,-1,-1,-1,-1,-1,-1],"split_conditions":[-1.6351145E-3,8.077849E-1,6.9415696E-2,2.895429E-1,-4.4943374E-2,-1.485758E-2,3.5207E9,3.751045E-3,-7.075659E-4,8.26779E-3,2.0579714E-3,-3.448913E-3,-4.4527464E-4,3.3249636E-3,1.3246581E-2],"split_indices":[4,0,8,0,4,8,3,0,0,0,0,0,0,0,0],"split_type":[0,0,0,0,0,0,0,0,0,0,0,0,0,0,0],"sum_hessian":[7.0677466E2,3.002164E2,4.0655826E2,1.7178796E2,1.2842842E2,4.0258014E2,3.9781082E0,3.0867811E1,1.4092015E2,1.45203705E1,1.1390806E2,8.551162E1,3.170685E2,1.4949791E0,2.483129E0],"tree_param":{"num_deleted":"0","num_feature":"9","num_nodes":"15","size_leaf_vector":"1"}},{"base_weights":[-1.9345328E-4,1.2624267E-1,-9.362389E-2,1.0972642E-2,2.7919605E-1,-2.881651E-1,-1.1090677E-2,3.7156108E-3,-7.00517E-4,8.1984885E-3,2.037979E-3,-1.3609589E-3,-4.78823E-3,2.3772633E-3,-1.4580666E-3],"categories":[],"categories_nodes":[],"categories_segments":[],"categories_sizes":[],"default_left":[0,0,0,0,0,0,0,0,0,0,0,0,0,0,0],"id":40,"left_children":[1,3,5,7,9,11,13,-1,-1,-1,-1,-1,-1,-1,-1],"loss_changes":[8.37238E0,5.3069434E0,6.540761E0,5.074193E0,5.107416E0,3.4535599E0,9.661642E0,0E0,0E0,0E0,0E0,0E0,0E0,0E0,0E0],"parents":[2147483647,0,0,1,1,2,2,3,3,4,4,5,5,6,6],"right_children":[2,4,6,8,10,12,14,-1,-1,-1,-1,-1,-1,-1,-1],"split_conditions":[-1.6351145E-3,8.077849E-1,1.6825E3,2.895429E-1,-4.4943374E-2,3.3516383E-1,2.09993E3,3.7156108E-3,-7.00517E-4,8.1984885E-3,2.037979E-3,-1.3609589E-3,-4.78823E-3,2.3772633E-3,-1.4580666E-3],"split_indices":[4,0,1,0,4,0,1,0,0,0,0,0,0,0,0],"split_type":[0,0,0,0,0,0,0,0,0,0,0,0,0,0,0],"sum_hessian":[7.0674347E2,3.0017545E2,4.0656805E2,1.7178506E2,1.2839037E2,1.2036382E2,2.8620422E2,3.0860147E1,1.4092491E2,1.450521E1,1.1388516E2,6.791138E1,5.2452446E1,1.0026067E2,1.8594356E2],"tree_param":{"num_deleted":"0","num_feature":"9","num_nodes":"15","size_leaf_vector":"1"}},{"base_weights":[-1.7999084E-4,1.8248934E-2,-7.1536714E-1,-9.91997E-1,2.817007E-2,-8.6401457E-1,4.2160703E-3,1.7850514E-3,-1.2901325E-2,1.6821822E-4,8.639916E-3,-4.7155423E-3,-1.4288401E-2],"categories":[],"categories_nodes":[],"categories_segments":[],"categories_sizes":[],"default_left":[0,0,0,0,0,0,0,0,0,0,0,0,0],"id":41,"left_children":[1,3,5,7,9,11,-1,-1,-1,-1,-1,-1,-1],"loss_changes":[9.34076E0,6.9527545E0,3.3731327E0,2.5846753E0,6.4842844E0,2.8890457E0,0E0,0E0,0E0,0E0,0E0,0E0,0E0],"parents":[2147483647,0,0,1,1,2,2,3,3,4,4,5,5],"right_children":[2,4,6,8,10,12,-1,-1,-1,-1,-1,-1,-1],"split_conditions":[2.0144986E-2,8.643236E-3,3.4339625E-2,-8.059759E-3,2.6849596E-2,3.4221652E0,4.2160703E-3,1.7850514E-3,-1.2901325E-2,1.6821822E-4,8.639916E-3,-4.7155423E-3,-1.4288401E-2],"split_indices":[5,6,8,8,7,0,0,0,0,0,0,0,0],"split_type":[0,0,0,0,0,0,0,0,0,0,0,0,0],"sum_hessian":[7.067097E2,6.899067E2,1.6803017E1,5.746688E0,6.8416003E2,1.5072518E1,1.7304977E0,1.2480426E0,4.4986453E0,6.7600183E2,8.158192E0,9.975832E0,5.0966854E0],"tree_param":{"num_deleted":"0","num_feature":"9","num_nodes":"13","size_leaf_vector":"1"}},{"base_weights":[-2.024309E-4,1.8063495E-2,-7.0966166E-1,-9.836762E-1,2.790181E-2,-2.813057E-1,-1.1909891E0,1.7752111E-3,-1.27947945E-2,1.3683536E-3,-5.561963E-4,-7.2567468E-3,5.700358E-3,-1.3497055E-2,-1.6998467E-3],"categories":[],"categories_nodes":[],"categories_segments":[],"categories_sizes":[],"default_left":[0,0,0,0,0,0,0,0,0,0,0,0,0,0,0],"id":42,"left_children":[1,3,5,7,9,11,13,-1,-1,-1,-1,-1,-1,-1,-1],"loss_changes":[9.183616E0,6.836504E0,3.3324175E0,2.5446415E0,6.241276E0,4.4695024E0,1.0777788E0,0E0,0E0,0E0,0E0,0E0,0E0,0E0,0E0],"parents":[2147483647,0,0,1,1,2,2,3,3,4,4,5,5,6,6],"right_children":[2,4,6,8,10,12,14,-1,-1,-1,-1,-1,-1,-1,-1],"split_conditions":[2.0144986E-2,8.643236E-3,8.077849E-1,-8.059759E-3,-1.6351145E-3,3.394864E-1,7.8339343E0,1.7752111E-3,-1.27947945E-2,1.3683536E-3,-5.561963E-4,-7.2567468E-3,5.700358E-3,-1.3497055E-2,-1.6998467E-3],"split_indices":[5,6,0,8,4,0,0,0,0,0,0,0,0,0,0],"split_type":[0,0,0,0,0,0,0,0,0,0,0,0,0,0,0],"sum_hessian":[7.0668164E2,6.89894E2,1.6787653E1,5.7470174E0,6.841469E2,9.720954E0,7.066699E0,1.2479537E0,4.499064E0,2.9662842E2,3.8751852E2,6.484102E0,3.2368526E0,5.8373394E0,1.2293599E0],"tree_param":{"num_deleted":"0","num_feature":"9","num_nodes":"15","size_leaf_vector":"1"}},{"base_weights":[-2.3862606E-4,1.7868657E-2,-7.040787E-1,-1.4250404E-1,7.8874916E-2,-2.7870092E-1,-1.1827204E0,-1.8605374E-3,7.860869E-3,-9.886582E-4,1.5183848E-3,-7.1959477E-3,5.657154E-3,-1.340511E-2,-1.6905501E-3],"categories":[],"categories_nodes":[],"categories_segments":[],"categories_sizes":[],"default_left":[0,0,0,0,0,0,0,0,0,0,0,0,0,0,0],"id":43,"left_children":[1,3,5,7,9,11,13,-1,-1,-1,-1,-1,-1,-1,-1],"loss_changes":[9.031263E0,6.7705536E0,3.2890892E0,7.859864E0,6.51396E0,4.397581E0,1.0617151E0,0E0,0E0,0E0,0E0,0E0,0E0,0E0,0E0],"parents":[2147483647,0,0,1,1,2,2,3,3,4,4,5,5,6,6],"right_children":[2,4,6,8,10,12,14,-1,-1,-1,-1,-1,-1,-1,-1],"split_conditions":[2.0144986E-2,1.7433388E-2,8.077849E-1,1.2289184E-2,1.38781E3,3.394864E-1,7.8339343E0,-1.8605374E-3,7.860869E-3,-9.886582E-4,1.5183848E-3,-7.1959477E-3,5.657154E-3,-1.340511E-2,-1.6905501E-3],"split_indices":[5,6,0,5,1,0,0,0,0,0,0,0,0,0,0],"split_type":[0,0,0,0,0,0,0,0,0,0,0,0,0,0,0],"sum_hessian":[7.066456E2,6.898723E2,1.6773333E1,1.8974266E2,5.0012967E2,9.718552E0,7.05478E0,1.8200642E2,7.736228E0,1.454516E2,3.5467807E2,6.4819574E0,3.236595E0,5.825521E0,1.2292593E0],"tree_param":{"num_deleted":"0","num_feature":"9","num_nodes":"15","size_leaf_vector":"1"}},{"base_weights":[-2.5054542E-4,1.7699942E-2,-6.985652E-1,-9.7388405E-1,2.7439352E-2,-2.7612513E-1,-1.1745739E0,-1.4601154E-2,-2.744085E-3,1.6205551E-4,8.556193E-3,-5.8662836E-3,8.432734E-3,-6.187959E-3,-1.3735534E-2],"categories":[],"categories_nodes":[],"categories_segments":[],"categories_sizes":[],"default_left":[0,0,0,0,0,0,0,0,0,0,0,0,0,0,0],"id":44,"left_children":[1,3,5,7,9,11,13,-1,-1,-1,-1,-1,-1,-1,-1],"loss_changes":[8.882379E0,6.698628E0,3.246622E0,1.8940487E0,6.3601236E0,4.219305E0,3.9455414E-2,0E0,0E0,0E0,0E0,0E0,0E0,0E0,0E0],"parents":[2147483647,0,0,1,1,2,2,3,3,4,4,5,5,6,6],"right_children":[2,4,6,8,10,12,14,-1,-1,-1,-1,-1,-1,-1,-1],"split_conditions":[2.0144986E-2,8.643236E-3,2.0635E3,2.36724E8,2.6849596E-2,1.92021E3,3.7561078E-2,-1.4601154E-2,-2.744085E-3,1.6205551E-4,8.556193E-3,-5.8662836E-3,8.432734E-3,-6.187959E-3,-1.3735534E-2],"split_indices":[5,6,1,2,7,1,6,0,0,0,0,0,0,0,0],"split_type":[0,0,0,0,0,0,0,0,0,0,0,0,0,0,0],"sum_hessian":[7.066148E2,6.898564E2,1.6758411E1,5.7470436E0,6.841093E2,9.715951E0,7.042461E0,2.7488043E0,2.998239E0,6.759599E2,8.149452E0,7.978724E0,1.7372271E0,2.9401245E0,4.1023364E0],"tree_param":{"num_deleted":"0","num_feature":"9","num_nodes":"15","size_leaf_vector":"1"}},{"base_weights":[-2.8484224E-4,1.7510835E-2,-6.931378E-1,-1.4094177E-1,7.779549E-2,-8.406187E-1,4.2576273E-3,-1.8408098E-3,7.792205E-3,1.7719186E-3,-4.1493407E-4,4.6697358E-4,-9.701374E-3],"categories":[],"categories_nodes":[],"categories_segments":[],"categories_sizes":[],"default_left":[0,0,0,0,0,0,0,0,0,0,0,0,0],"id":45,"left_children":[1,3,5,7,9,11,-1,-1,-1,-1,-1,-1,-1],"loss_changes":[8.736531E0,6.6100774E0,3.2858973E0,7.715438E0,5.9487066E0,1.8856316E0,0E0,0E0,0E0,0E0,0E0,0E0,0E0],"parents":[2147483647,0,0,1,1,2,2,3,3,4,4,5,5],"right_children":[2,4,6,8,10,12,-1,-1,-1,-1,-1,-1,-1],"split_conditions":[2.0144986E-2,1.7433388E-2,3.4339625E-2,1.2289184E-2,3.4798032E-3,2.1530053E-2,4.2576273E-3,-1.8408098E-3,7.792205E-3,1.7719186E-3,-4.1493407E-4,4.6697358E-4,-9.701374E-3],"split_indices":[5,6,8,5,4,6,0,0,0,0,0,0,0],"split_type":[0,0,0,0,0,0,0,0,0,0,0,0,0],"sum_hessian":[7.065867E2,6.89843E2,1.674364E1,1.8975409E2,5.0008893E2,1.5013447E1,1.7301934E0,1.8202052E2,7.733572E0,2.7252475E2,2.2756416E2,1.9937782E0,1.3019669E1],"tree_param":{"num_deleted":"0","num_feature":"9","num_nodes":"13","size_leaf_vector":"1"}},{"base_weights":[-2.7875093E-4,1.7346844E-2,-6.8705714E-1,1.2445167E-1,-6.509262E-2,-8.3351773E-1,4.2317593E-3,9.7811506E-5,2.7701422E-3,6.2401146E-3,-9.392442E-4,-4.493212E-3,-1.3925438E-2],"categories":[],"categories_nodes":[],"categories_segments":[],"categories_sizes":[],"default_left":[0,0,0,0,0,0,0,0,0,0,0,0,0],"id":46,"left_children":[1,3,5,7,9,11,-1,-1,-1,-1,-1,-1,-1],"loss_changes":[8.576758E0,6.1078434E0,3.2355566E0,5.259735E0,7.827376E0,2.8106146E0,0E0,0E0,0E0,0E0,0E0,0E0,0E0],"parents":[2147483647,0,0,1,1,2,2,3,3,4,4,5,5],"right_children":[2,4,6,8,10,12,-1,-1,-1,-1,-1,-1,-1],"split_conditions":[2.0144986E-2,-1.6351145E-3,3.4339625E-2,8.077849E-1,-6.814694E-3,3.4221652E0,4.2317593E-3,9.7811506E-5,2.7701422E-3,6.2401146E-3,-9.392442E-4,-4.493212E-3,-1.3925438E-2],"split_indices":[5,4,8,0,5,0,0,0,0,0,0,0,0],"split_type":[0,0,0,0,0,0,0,0,0,0,0,0,0],"sum_hessian":[7.065528E2,6.898238E2,1.672901E1,2.9980692E2,3.9001685E2,1.4999532E1,1.7294787E0,1.7176637E2,1.2804056E2,1.4833787E1,3.7518307E2,9.958918E0,5.0406137E0],"tree_param":{"num_deleted":"0","num_feature":"9","num_nodes":"13","size_leaf_vector":"1"}},{"base_weights":[-2.8448596E-4,1.7186228E-2,-6.8165934E-1,6.0563744E-3,8.4665835E-1,-2.63704E-1,-1.1555283E0,-1.1626309E-4,5.8624414E-3,1.0740175E-2,1.6836504E-3,-6.9864797E-3,5.661646E-3,-1.3122123E-2,-1.5909912E-3],"categories":[],"categories_nodes":[],"categories_segments":[],"categories_sizes":[],"default_left":[0,0,0,0,0,0,0,0,0,0,0,0,0,0,0],"id":47,"left_children":[1,3,5,7,9,11,13,-1,-1,-1,-1,-1,-1,-1,-1],"loss_changes":[8.433872E0,6.3721657E0,3.203186E0,7.010307E0,1.2285657E0,4.2601113E0,1.0409927E0,0E0,0E0,0E0,0E0,0E0,0E0,0E0,0E0],"parents":[2147483647,0,0,1,1,2,2,3,3,4,4,5,5,6,6],"right_children":[2,4,6,8,10,12,14,-1,-1,-1,-1,-1,-1,-1,-1],"split_conditions":[2.0144986E-2,2.6849596E-2,8.077849E-1,1.4985846E-2,7.1027946E0,3.394864E-1,7.8339343E0,-1.1626309E-4,5.8624414E-3,1.0740175E-2,1.6836504E-3,-6.9864797E-3,5.661646E-3,-1.3122123E-2,-1.5909912E-3],"split_indices":[5,7,0,5,0,0,0,0,0,0,0,0,0,0,0],"split_type":[0,0,0,0,0,0,0,0,0,0,0,0,0,0,0],"sum_hessian":[7.0650024E2,6.897886E2,1.6711668E1,6.816495E2,8.139069E0,9.706748E0,7.0049205E0,6.6243994E2,1.9209562E1,5.6588497E0,2.480219E0,6.4725366E0,3.234211E0,5.779245E0,1.2256753E0],"tree_param":{"num_deleted":"0","num_feature":"9","num_nodes":"15","size_leaf_vector":"1"}},{"base_weights":[-2.787132E-4,1.7040936E-2,-6.7638904E-1,-9.650508E-1,2.6688533E-2,-8.2190996E-1,4.229098E-3,1.8164418E-3,-1.2584148E-2,1.3301986E-3,-5.4805726E-4,-4.4178837E-3,-1.3774737E-2],"categories":[],"categories_nodes":[],"categories_segments":[],"categories_sizes":[],"default_left":[0,0,0,0,0,0,0,0,0,0,0,0,0],"id":48,"left_children":[1,3,5,7,9,11,-1,-1,-1,-1,-1,-1,-1],"loss_changes":[8.296057E0,6.570776E0,3.1782837E0,2.498198E0,5.9433746E0,2.7632189E0,0E0,0E0,0E0,0E0,0E0,0E0,0E0],"parents":[2147483647,0,0,1,1,2,2,3,3,4,4,5,5],"right_children":[2,4,6,8,10,12,-1,-1,-1,-1,-1,-1,-1],"split_conditions":[2.0144986E-2,8.643236E-3,3.4339625E-2,-8.059759E-3,-1.6351145E-3,3.4221652E0,4.229098E-3,1.8164418E-3,-1.2584148E-2,1.3301986E-3,-5.4805726E-4,-4.4178837E-3,-1.3774737E-2],"split_indices":[5,6,8,8,4,0,0,0,0,0,0,0,0],"split_type":[0,0,0,0,0,0,0,0,0,0,0,0,0],"sum_hessian":[7.064752E2,6.8978015E2,1.669503E1,5.746789E0,6.840334E2,1.4966196E1,1.7288345E0,1.2482971E0,4.498492E0,2.9651587E2,3.8751752E2,9.952093E0,5.0141025E0],"tree_param":{"num_deleted":"0","num_feature":"9","num_nodes":"13","size_leaf_vector":"1"}},{"base_weights":[-3.0990053E-4,1.6856667E-2,-6.7110634E-1,-9.5710593E-1,2.6423678E-2,-2.5791448E-1,-1.1413517E0,1.8064247E-3,-1.2482756E-2,1.5411948E-4,8.3985375E-3,-6.8950104E-3,5.643252E-3,-1.2972251E-2,-1.5478809E-3],"categories":[],"categories_nodes":[],"categories_segments":[],"categories_sizes":[],"default_left":[0,0,0,0,0,0,0,0,0,0,0,0,0,0,0],"id":49,"left_children":[1,3,5,7,9,11,13,-1,-1,-1,-1,-1,-1,-1,-1],"loss_changes":[8.157615E0,6.4617095E0,3.140286E0,2.4602985E0,6.122892E0,4.186617E0,1.0257044E0,0E0,0E0,0E0,0E0,0E0,0E0,0E0,0E0],"parents":[2147483647,0,0,1,1,2,2,3,3,4,4,5,5,6,6],"right_children":[2,4,6,8,10,12,14,-1,-1,-1,-1,-1,-1,-1,-1],"split_conditions":[2.0144986E-2,8.643236E-3,8.077849E-1,-8.059759E-3,2.6849596E-2,3.394864E-1,7.8339343E0,1.8064247E-3,-1.2482756E-2,1.5411948E-4,8.3985375E-3,-6.8950104E-3,5.643252E-3,-1.2972251E-2,-1.5478809E-3],"split_indices":[5,6,0,8,7,0,0,0,0,0,0,0,0,0,0],"split_type":[0,0,0,0,0,0,0,0,0,0,0,0,0,0,0],"sum_hessian":[7.0643463E2,6.897577E2,1.667694E1,5.74602E0,6.8401166E2,9.701215E0,6.975726E0,1.248213E0,4.497807E0,6.75881E2,8.130724E0,6.467772E0,3.2334425E0,5.752033E0,1.2236927E0],"tree_param":{"num_deleted":"0","num_feature":"9","num_nodes":"15","size_leaf_vector":"1"}},{"base_weights":[-3.3223108E-4,1.66854E-2,-6.659518E-1,-1.3916564E-1,7.5993545E-2,-8.1056106E-1,4.2261626E-3,-1.8187312E-3,7.7209095E-3,-9.964813E-4,1.4812235E-3,-4.0451493E-3,-1.27490265E-2],"categories":[],"categories_nodes":[],"categories_segments":[],"categories_sizes":[],"default_left":[0,0,0,0,0,0,0,0,0,0,0,0,0],"id":50,"left_children":[1,3,5,7,9,11,-1,-1,-1,-1,-1,-1,-1],"loss_changes":[8.024052E0,6.395278E0,3.122456E0,7.564126E0,6.3616915E0,2.488038E0,0E0,0E0,0E0,0E0,0E0,0E0,0E0],"parents":[2147483647,0,0,1,1,2,2,3,3,4,4,5,5],"right_children":[2,4,6,8,10,12,-1,-1,-1,-1,-1,-1,-1],"split_conditions":[2.0144986E-2,1.7433388E-2,3.4339625E-2,1.2289184E-2,1.38781E3,2.01343E3,4.2261626E-3,-1.8187312E-3,7.7209095E-3,-9.964813E-4,1.4812235E-3,-4.0451493E-3,-1.27490265E-2],"split_indices":[5,6,8,5,1,1,0,0,0,0,0,0,0],"split_type":[0,0,0,0,0,0,0,0,0,0,0,0,0],"sum_hessian":[7.0640265E2,6.8974316E2,1.6659458E1,1.89755E2,4.999882E2,1.4931316E1,1.7281417E0,1.8202455E2,7.7304535E0,1.4544118E2,3.54547E2,8.963922E0,5.967395E0],"tree_param":{"num_deleted":"0","num_feature":"9","num_nodes":"13","size_leaf_vector":"1"}},{"base_weights":[-3.37722E-4,1.1994949E-1,-8.9198336E-2,9.326564E-3,2.669293E-1,-1.034612E-1,1.0857383E0,3.6567429E-3,-7.0708845E-4,8.016452E-3,1.9255345E-3,-3.0191364E-3,-1.9263485E-4,1.3185582E-2,3.2553088E-3],"categories":[],"categories_nodes":[],"categories_segments":[],"categories_sizes":[],"default_left":[0,0,0,0,0,0,0,0,0,0,0,0,0,0,0],"id":51,"left_children":[1,3,5,7,9,11,13,-1,-1,-1,-1,-1,-1,-1,-1],"loss_changes":[7.5715938E0,4.8910046E0,6.9395475E0,4.952969E0,4.984235E0,6.7351604E0,4.509883E-1,0E0,0E0,0E0,0E0,0E0,0E0,0E0,0E0],"parents":[2147483647,0,0,1,1,2,2,3,3,4,4,5,5,6,6],"right_children":[2,4,6,8,10,12,14,-1,-1,-1,-1,-1,-1,-1,-1],"split_conditions":[-1.6351145E-3,8.077849E-1,6.9415696E-2,2.895429E-1,-4.4943374E-2,1.6825E3,2.09853E3,3.6567429E-3,-7.0708845E-4,8.016452E-3,1.9255345E-3,-3.0191364E-3,-1.9263485E-4,1.3185582E-2,3.2553088E-3],"split_indices":[4,0,8,0,4,1,1,0,0,0,0,0,0,0,0],"split_type":[0,0,0,0,0,0,0,0,0,0,0,0,0,0,0],"sum_hessian":[7.063664E2,2.9996518E2,4.0640125E2,1.7175723E2,1.2820795E2,4.02428E2,3.9732368E0,3.0846796E1,1.4091043E2,1.4461381E1,1.1374656E2,1.1910767E2,2.833203E2,2.4794219E0,1.4938151E0],"tree_param":{"num_deleted":"0","num_feature":"9","num_nodes":"15","size_leaf_vector":"1"}},{"base_weights":[-2.9722656E-4,-9.4712514E-1,8.805628E-3,1.8092565E-3,-1.236217E0,-1.3735145E-1,6.3682295E-2,-1.4574696E-2,-3.8796456E-3,1.4773812E-3,-2.4045545E-3,3.5457266E-4,5.232916E-3],"categories":[],"categories_nodes":[],"categories_segments":[],"categories_sizes":[],"default_left":[0,0,0,0,0,0,0,0,0,0,0,0,0],"id":52,"left_children":[1,3,5,-1,7,9,11,-1,-1,-1,-1,-1,-1],"loss_changes":[6.104701E0,2.4232001E0,5.63589E0,0E0,4.661312E-1,5.674156E0,6.607208E0,0E0,0E0,0E0,0E0,0E0,0E0],"parents":[2147483647,0,0,1,1,2,2,4,4,5,5,6,6],"right_children":[2,4,6,-1,8,10,12,-1,-1,-1,-1,-1,-1],"split_conditions":[8.643236E-3,-8.059759E-3,1.48785E3,1.8092565E-3,2.90968E8,2.895429E-1,3.901242E-2,-1.4574696E-2,-3.8796456E-3,1.4773812E-3,-2.4045545E-3,3.5457266E-4,5.232916E-3],"split_indices":[6,8,1,0,2,0,8,0,0,0,0,0,0],"split_type":[0,0,0,0,0,0,0,0,0,0,0,0,0],"sum_hessian":[7.0632983E2,5.744763E0,7.005851E2,1.2482371E0,4.496526E0,1.9083014E2,5.0975494E2,2.9966865E0,1.4998394E0,5.05694E1,1.4026074E2,4.812765E2,2.8478476E1],"tree_param":{"num_deleted":"0","num_feature":"9","num_nodes":"13","size_leaf_vector":"1"}},{"base_weights":[-3.111551E-4,1.1882333E-1,-8.8305004E-2,9.87693E-3,2.6362708E-1,-1.0243708E-1,1.0768112E0,3.6098468E-3,-6.8953895E-4,7.938847E-3,1.8994889E-3,-2.9774338E-3,-1.9564472E-4,1.3094064E-2,3.205533E-3],"categories":[],"categories_nodes":[],"categories_segments":[],"categories_sizes":[],"default_left":[0,0,0,0,0,0,0,0,0,0,0,0,0,0,0],"id":53,"left_children":[1,3,5,7,9,11,13,-1,-1,-1,-1,-1,-1,-1,-1],"loss_changes":[7.4253197E0,4.744541E0,6.8183584E0,4.8064494E0,4.895133E0,6.523925E0,4.5434666E-1,0E0,0E0,0E0,0E0,0E0,0E0,0E0,0E0],"parents":[2147483647,0,0,1,1,2,2,3,3,4,4,5,5,6,6],"right_children":[2,4,6,8,10,12,14,-1,-1,-1,-1,-1,-1,-1,-1],"split_conditions":[-1.6351145E-3,8.077849E-1,6.9415696E-2,2.895429E-1,-4.4943374E-2,1.6825E3,2.09853E3,3.6098468E-3,-6.8953895E-4,7.938847E-3,1.8994889E-3,-2.9774338E-3,-1.9564472E-4,1.3094064E-2,3.205533E-3],"split_indices":[4,0,8,0,4,1,1,0,0,0,0,0,0,0,0],"split_type":[0,0,0,0,0,0,0,0,0,0,0,0,0,0,0],"sum_hessian":[7.063123E2,2.9991217E2,4.0640015E2,1.7175592E2,1.2815627E2,4.02431E2,3.9691386E0,3.0835817E1,1.4092009E2,1.4442124E1,1.1371414E2,1.1911628E2,2.8331473E2,2.4761453E0,1.4929934E0],"tree_param":{"num_deleted":"0","num_feature":"9","num_nodes":"15","size_leaf_vector":"1"}},{"base_weights":[-2.7128233E-4,1.6539324E-2,-6.586097E-1,5.6699836E-3,8.2866E-1,-2.4837822E-1,-1.1277E0,-1.1888743E-4,5.8186883E-3,1.0544535E-2,1.5938411E-3,-6.749432E-3,5.624605E-3,-1.2825902E-2,-1.5137042E-3],"categories":[],"categories_nodes":[],"categories_segments":[],"categories_sizes":[],"default_left":[0,0,0,0,0,0,0,0,0,0,0,0,0,0,0],"id":54,"left_children":[1,3,5,7,9,11,13,-1,-1,-1,-1,-1,-1,-1,-1],"loss_changes":[7.8383436E0,6.091722E0,3.113503E0,6.912237E0,1.2092991E0,4.077097E0,1.0072985E0,0E0,0E0,0E0,0E0,0E0,0E0,0E0,0E0],"parents":[2147483647,0,0,1,1,2,2,3,3,4,4,5,5,6,6],"right_children":[2,4,6,8,10,12,14,-1,-1,-1,-1,-1,-1,-1,-1],"split_conditions":[2.0144986E-2,2.6849596E-2,8.077849E-1,1.4985846E-2,7.1027946E0,3.394864E-1,7.8339343E0,-1.1888743E-4,5.8186883E-3,1.0544535E-2,1.5938411E-3,-6.749432E-3,5.624605E-3,-1.2825902E-2,-1.5137042E-3],"split_indices":[5,7,0,5,0,0,0,0,0,0,0,0,0,0,0],"split_type":[0,0,0,0,0,0,0,0,0,0,0,0,0,0,0],"sum_hessian":[7.062741E2,6.896391E2,1.6634989E1,6.815246E2,8.114473E0,9.690173E0,6.9448156E0,6.6232086E2,1.9203787E1,5.6371546E0,2.4773195E0,6.4595437E0,3.2306297E0,5.723175E0,1.2216407E0],"tree_param":{"num_deleted":"0","num_feature":"9","num_nodes":"15","size_leaf_vector":"1"}},{"base_weights":[-2.6528057E-4,1.6400067E-2,-6.535885E-1,-9.3964326E-1,2.5788914E-2,-2.4608472E-1,-1.1203195E0,1.8026481E-3,-1.2268381E-2,1.5031513E-4,8.224521E-3,-5.472394E-3,8.311103E-3,-1.2472937E-2,-2.3639542E-3],"categories":[],"categories_nodes":[],"categories_segments":[],"categories_sizes":[],"default_left":[0,0,0,0,0,0,0,0,0,0,0,0,0,0,0],"id":55,"left_children":[1,3,5,7,9,11,13,-1,-1,-1,-1,-1,-1,-1,-1],"loss_changes":[7.7111197E0,6.2234263E0,3.0748858E0,2.3899522E0,5.8571343E0,3.921548E0,5.9518147E-1,0E0,0E0,0E0,0E0,0E0,0E0,0E0,0E0],"parents":[2147483647,0,0,1,1,2,2,3,3,4,4,5,5,6,6],"right_children":[2,4,6,8,10,12,14,-1,-1,-1,-1,-1,-1,-1,-1],"split_conditions":[2.0144986E-2,8.643236E-3,2.0635E3,-8.059759E-3,2.6849596E-2,1.92021E3,3.0612456E-2,1.8026481E-3,-1.2268381E-2,1.5031513E-4,8.224521E-3,-5.472394E-3,8.311103E-3,-1.2472937E-2,-2.3639542E-3],"split_indices":[5,6,1,8,7,1,8,0,0,0,0,0,0,0,0],"split_type":[0,0,0,0,0,0,0,0,0,0,0,0,0,0,0],"sum_hessian":[7.062465E2,6.8962994E2,1.6616585E1,5.743102E0,6.8388684E2,9.686519E0,6.930066E0,1.2481811E0,4.4949207E0,6.757806E2,8.106247E0,7.9546037E0,1.7319155E0,5.700161E0,1.2299052E0],"tree_param":{"num_deleted":"0","num_feature":"9","num_nodes":"15","size_leaf_vector":"1"}},{"base_weights":[-2.827178E-4,1.1749457E-1,-8.726677E-2,9.892506E-3,2.60564E-1,-2.7258858E-1,-8.6002415E-3,3.5755108E-3,-6.8142876E-4,7.857836E-3,1.8767085E-3,-1.2053548E-3,-4.63433E-3,2.3700458E-3,-1.4167747E-3],"categories":[],"categories_nodes":[],"categories_segments":[],"categories_sizes":[],"default_left":[0,0,0,0,0,0,0,0,0,0,0,0,0,0,0],"id":56,"left_children":[1,3,5,7,9,11,13,-1,-1,-1,-1,-1,-1,-1,-1],"loss_changes":[7.2554517E0,4.6289463E0,5.9363546E0,4.71103E0,4.7952623E0,3.4657269E0,9.414004E0,0E0,0E0,0E0,0E0,0E0,0E0,0E0,0E0],"parents":[2147483647,0,0,1,1,2,2,3,3,4,4,5,5,6,6],"right_children":[2,4,6,8,10,12,14,-1,-1,-1,-1,-1,-1,-1,-1],"split_conditions":[-1.6351145E-3,8.077849E-1,1.6825E3,2.895429E-1,-4.4943374E-2,3.3516383E-1,2.09993E3,3.5755108E-3,-6.8142876E-4,7.857836E-3,1.8767085E-3,-1.2053548E-3,-4.63433E-3,2.3700458E-3,-1.4167747E-3],"split_indices":[4,0,1,0,4,0,1,0,0,0,0,0,0,0,0],"split_type":[0,0,0,0,0,0,0,0,0,0,0,0,0,0,0],"sum_hessian":[7.062111E2,2.9985443E2,4.063567E2,1.7175055E2,1.2810388E2,1.2035664E2,2.8600003E2,3.0827553E1,1.4092299E2,1.4420368E1,1.1368352E2,6.7894264E1,5.246238E1,1.0023228E2,1.8576776E2],"tree_param":{"num_deleted":"0","num_feature":"9","num_nodes":"15","size_leaf_vector":"1"}},{"base_weights":[-2.687537E-4,1.6225388E-2,-6.476627E-1,-1.3701047E-1,7.455511E-2,-2.4273063E-1,-1.112435E0,-1.7930683E-3,7.657368E-3,-9.430063E-4,1.4393139E-3,-6.6381353E-3,5.5681244E-3,-1.2670144E-2,-1.4527357E-3],"categories":[],"categories_nodes":[],"categories_segments":[],"categories_sizes":[],"default_left":[0,0,0,0,0,0,0,0,0,0,0,0,0,0,0],"id":57,"left_children":[1,3,5,7,9,11,13,-1,-1,-1,-1,-1,-1,-1,-1],"loss_changes":[7.5618315E0,6.1827364E0,3.0411792E0,7.4206257E0,5.88058E0,3.9657502E0,9.9889755E-1,0E0,0E0,0E0,0E0,0E0,0E0,0E0,0E0],"parents":[2147483647,0,0,1,1,2,2,3,3,4,4,5,5,6,6],"right_children":[2,4,6,8,10,12,14,-1,-1,-1,-1,-1,-1,-1,-1],"split_conditions":[2.0144986E-2,1.7433388E-2,8.077849E-1,1.2289184E-2,1.38781E3,3.394864E-1,7.8339343E0,-1.7930683E-3,7.657368E-3,-9.430063E-4,1.4393139E-3,-6.6381353E-3,5.5681244E-3,-1.2670144E-2,-1.4527357E-3],"split_indices":[5,6,0,5,1,0,0,0,0,0,0,0,0,0,0],"split_type":[0,0,0,0,0,0,0,0,0,0,0,0,0,0,0],"sum_hessian":[7.061714E2,6.8957745E2,1.6593946E1,1.8974814E2,4.9982928E2,9.681346E0,6.9126E0,1.8202129E2,7.726858E0,1.4545221E2,3.5437708E2,6.4527407E0,3.2286055E0,5.6927104E0,1.2198896E0],"tree_param":{"num_deleted":"0","num_feature":"9","num_nodes":"15","size_leaf_vector":"1"}},{"base_weights":[-2.78646E-4,1.6072866E-2,-6.427603E-1,-9.3058866E-1,2.536792E-2,-2.7823818E-1,-1.1633053E0,1.7996223E-3,-1.2157031E-2,1.4730582E-4,8.141315E-3,-6.5838005E-3,3.1965817E-3,-1.3558397E-2,-1.4448331E-3],"categories":[],"categories_nodes":[],"categories_segments":[],"categories_sizes":[],"default_left":[0,0,0,0,0,0,0,0,0,0,0,0,0,0,0],"id":58,"left_children":[1,3,5,7,9,11,13,-1,-1,-1,-1,-1,-1,-1,-1],"loss_changes":[7.4391503E0,6.100018E0,3.0111194E0,2.3532257E0,5.7338614E0,2.8585057E0,1.1622839E0,0E0,0E0,0E0,0E0,0E0,0E0,0E0,0E0],"parents":[2147483647,0,0,1,1,2,2,3,3,4,4,5,5,6,6],"right_children":[2,4,6,8,10,12,14,-1,-1,-1,-1,-1,-1,-1,-1],"split_conditions":[2.0144986E-2,8.643236E-3,3.4221652E0,-8.059759E-3,2.6849596E-2,3.394864E-1,7.8339343E0,1.7996223E-3,-1.2157031E-2,1.4730582E-4,8.141315E-3,-6.5838005E-3,3.1965817E-3,-1.3558397E-2,-1.4448331E-3],"split_indices":[5,6,0,8,7,0,0,0,0,0,0,0,0,0,0],"split_type":[0,0,0,0,0,0,0,0,0,0,0,0,0,0,0],"sum_hessian":[7.061331E2,6.895585E2,1.657466E1,5.741045E0,6.838174E2,1.0650762E1,5.923897E0,1.2481552E0,4.4928894E0,6.757232E2,8.09419E0,6.4492035E0,4.201558E0,4.7041306E0,1.2197661E0],"tree_param":{"num_deleted":"0","num_feature":"9","num_nodes":"15","size_leaf_vector":"1"}},{"base_weights":[-3.0491178E-4,1.5909566E-2,-6.380402E-1,-1.3547187E-1,7.3540725E-2,-2.3757106E-1,-1.099325E0,-1.7736896E-3,7.591146E-3,1.6815456E-3,-3.9892396E-4,-6.5300125E-3,5.5020778E-3,-1.2526722E-2,-1.4369745E-3],"categories":[],"categories_nodes":[],"categories_segments":[],"categories_sizes":[],"default_left":[0,0,0,0,0,0,0,0,0,0,0,0,0,0,0],"id":59,"left_children":[1,3,5,7,9,11,13,-1,-1,-1,-1,-1,-1,-1,-1],"loss_changes":[7.321939E0,6.034452E0,2.9820719E0,7.28427E0,5.381325E0,3.8523712E0,9.752102E-1,0E0,0E0,0E0,0E0,0E0,0E0,0E0,0E0],"parents":[2147483647,0,0,1,1,2,2,3,3,4,4,5,5,6,6],"right_children":[2,4,6,8,10,12,14,-1,-1,-1,-1,-1,-1,-1,-1],"split_conditions":[2.0144986E-2,1.7433388E-2,8.077849E-1,1.2289184E-2,3.4798032E-3,3.394864E-1,7.8339343E0,-1.7736896E-3,7.591146E-3,1.6815456E-3,-3.9892396E-4,-6.5300125E-3,5.5020778E-3,-1.2526722E-2,-1.4369745E-3],"split_indices":[5,6,0,5,4,0,0,0,0,0,0,0,0,0,0],"split_type":[0,0,0,0,0,0,0,0,0,0,0,0,0,0,0],"sum_hessian":[7.0609894E2,6.895423E2,1.6556622E1,1.8975546E2,4.9978683E2,9.673497E0,6.8831253E0,1.820319E2,7.723562E0,2.7223495E2,2.2755188E2,6.445558E0,3.2279387E0,5.663483E0,1.2196422E0],"tree_param":{"num_deleted":"0","num_feature":"9","num_nodes":"15","size_leaf_vector":"1"}},{"base_weights":[-3.131407E-4,1.5761308E-2,-6.332443E-1,-9.216472E-1,2.496285E-2,-7.7564377E-1,4.2555467E-3,1.7994791E-3,-1.2048504E-2,9.028345E-5,5.4229633E-3,-4.084536E-3,-1.3232335E-2],"categories":[],"categories_nodes":[],"categories_segments":[],"categories_sizes":[],"default_left":[0,0,0,0,0,0,0,0,0,0,0,0,0],"id":60,"left_children":[1,3,5,7,9,11,-1,-1,-1,-1,-1,-1,-1],"loss_changes":[7.203592E0,5.9791617E0,2.9741068E0,2.3190818E0,5.6400704E0,2.638812E0,0E0,0E0,0E0,0E0,0E0,0E0,0E0],"parents":[2147483647,0,0,1,1,2,2,3,3,4,4,5,5],"right_children":[2,4,6,8,10,12,-1,-1,-1,-1,-1,-1,-1],"split_conditions":[2.0144986E-2,8.643236E-3,3.4339625E-2,-8.059759E-3,1.4985846E-2,3.4221652E0,4.2555467E-3,1.7994791E-3,-1.2048504E-2,9.028345E-5,5.4229633E-3,-4.084536E-3,-1.3232335E-2],"split_indices":[5,6,8,8,5,0,0,0,0,0,0,0,0],"split_type":[0,0,0,0,0,0,0,0,0,0,0,0,0],"sum_hessian":[7.060569E2,6.895204E2,1.653654E1,5.738587E0,6.837818E2,1.4811894E1,1.724644E0,1.248154E0,4.490433E0,6.6433685E2,1.9444935E1,9.911549E0,4.900346E0],"tree_param":{"num_deleted":"0","num_feature":"9","num_nodes":"13","size_leaf_vector":"1"}},{"base_weights":[-3.3533812E-4,1.1544453E-1,-8.583809E-2,9.989305E-3,2.5573647E-1,-9.983682E-2,1.0687861E0,3.5380688E-3,-6.7163026E-4,7.7618756E-3,1.8361047E-3,-2.9031914E-3,-1.8985017E-4,3.1779339E-3,1.3000975E-2],"categories":[],"categories_nodes":[],"categories_segments":[],"categories_sizes":[],"default_left":[0,0,0,0,0,0,0,0,0,0,0,0,0,0,0],"id":61,"left_children":[1,3,5,7,9,11,13,-1,-1,-1,-1,-1,-1,-1,-1],"loss_changes":[7.009102E0,4.447094E0,6.6893888E0,4.605924E0,4.7007627E0,6.205612E0,4.4914055E-1,0E0,0E0,0E0,0E0,0E0,0E0,0E0,0E0],"parents":[2147483647,0,0,1,1,2,2,3,3,4,4,5,5,6,6],"right_children":[2,4,6,8,10,12,14,-1,-1,-1,-1,-1,-1,-1,-1],"split_conditions":[-1.6351145E-3,8.077849E-1,6.9415696E-2,2.895429E-1,-4.4943374E-2,1.6825E3,3.5207E9,3.5380688E-3,-6.7163026E-4,7.7618756E-3,1.8361047E-3,-2.9031914E-3,-1.8985017E-4,3.1779339E-3,1.3000975E-2],"split_indices":[4,0,8,0,4,1,3,0,0,0,0,0,0,0,0],"split_type":[0,0,0,0,0,0,0,0,0,0,0,0,0,0,0],"sum_hessian":[7.06025E2,2.9976328E2,4.0626175E2,1.7174014E2,1.2802313E2,4.022978E2,3.963949E0,3.0818113E1,1.4092203E2,1.4394304E1,1.1362883E2,1.191042E2,2.831936E2,1.4924212E0,2.4715278E0],"tree_param":{"num_deleted":"0","num_feature":"9","num_nodes":"15","size_leaf_vector":"1"}},{"base_weights":[-2.9567617E-4,1.56101035E-2,-6.2738025E-1,-9.1372633E-1,2.4729386E-2,-2.6813355E-1,-1.1438633E0,1.7921991E-3,-1.19495345E-2,1.4211884E-4,8.056534E-3,-6.422753E-3,3.18861E-3,-1.3352071E-2,-1.3957738E-3],"categories":[],"categories_nodes":[],"categories_segments":[],"categories_sizes":[],"default_left":[0,0,0,0,0,0,0,0,0,0,0,0,0,0,0],"id":62,"left_children":[1,3,5,7,9,11,13,-1,-1,-1,-1,-1,-1,-1,-1],"loss_changes":[7.061442E0,5.8742557E0,2.9427538E0,2.2845411E0,5.612532E0,2.760055E0,1.1353626E0,0E0,0E0,0E0,0E0,0E0,0E0,0E0,0E0],"parents":[2147483647,0,0,1,1,2,2,3,3,4,4,5,5,6,6],"right_children":[2,4,6,8,10,12,14,-1,-1,-1,-1,-1,-1,-1,-1],"split_conditions":[2.0144986E-2,8.643236E-3,3.4221652E0,-8.059759E-3,2.6849596E-2,3.394864E-1,7.8339343E0,1.7921991E-3,-1.19495345E-2,1.4211884E-4,8.056534E-3,-6.422753E-3,3.18861E-3,-1.3352071E-2,-1.3957738E-3],"split_indices":[5,6,0,8,7,0,0,0,0,0,0,0,0,0,0],"split_type":[0,0,0,0,0,0,0,0,0,0,0,0,0,0,0],"sum_hessian":[7.05984E2,6.894709E2,1.651308E1,5.735883E0,6.8373505E2,1.0634951E1,5.8781295E0,1.2480905E0,4.487793E0,6.756535E2,8.081517E0,6.4375644E0,4.197386E0,4.6606417E0,1.217488E0],"tree_param":{"num_deleted":"0","num_feature":"9","num_nodes":"15","size_leaf_vector":"1"}},{"base_weights":[-3.2109904E-4,1.5451548E-2,-6.228178E-1,-1.334423E-1,7.21458E-2,-2.2778232E-1,-1.0808048E0,-1.7489686E-3,7.5205364E-3,-9.388662E-4,1.4038597E-3,-6.370564E-3,5.4604956E-3,-1.2331251E-2,-1.3881903E-3],"categories":[],"categories_nodes":[],"categories_segments":[],"categories_sizes":[],"default_left":[0,0,0,0,0,0,0,0,0,0,0,0,0,0,0],"id":63,"left_children":[1,3,5,7,9,11,13,-1,-1,-1,-1,-1,-1,-1,-1],"loss_changes":[6.9507365E0,5.8380437E0,2.9188485E0,7.133732E0,5.686143E0,3.723844E0,9.529352E-1,0E0,0E0,0E0,0E0,0E0,0E0,0E0,0E0],"parents":[2147483647,0,0,1,1,2,2,3,3,4,4,5,5,6,6],"right_children":[2,4,6,8,10,12,14,-1,-1,-1,-1,-1,-1,-1,-1],"split_conditions":[2.0144986E-2,1.7433388E-2,8.077849E-1,1.2289184E-2,1.38781E3,3.394864E-1,7.8339343E0,-1.7489686E-3,7.5205364E-3,-9.388662E-4,1.4038597E-3,-6.370564E-3,5.4604956E-3,-1.2331251E-2,-1.3881903E-3],"split_indices":[5,6,0,5,1,0,0,0,0,0,0,0,0,0,0],"split_type":[0,0,0,0,0,0,0,0,0,0,0,0,0,0,0],"sum_hessian":[7.0594806E2,6.8945404E2,1.6494015E1,1.897548E2,4.9969922E2,9.659552E0,6.8344636E0,1.820353E2,7.7195106E0,1.4544557E2,3.5425363E2,6.433612E0,3.2259398E0,5.617102E0,1.2173613E0],"tree_param":{"num_deleted":"0","num_feature":"9","num_nodes":"15","size_leaf_vector":"1"}},{"base_weights":[-3.2986194E-4,1.1420499E-1,-8.490606E-2,1.0563764E-2,2.5214267E-1,-9.879488E-2,1.0614319E0,3.5108267E-3,-6.5833965E-4,7.680484E-3,1.807372E-3,-2.8629883E-3,-1.9194787E-4,1.2929779E-2,3.131161E-3],"categories":[],"categories_nodes":[],"categories_segments":[],"categories_sizes":[],"default_left":[0,0,0,0,0,0,0,0,0,0,0,0,0,0,0],"id":64,"left_children":[1,3,5,7,9,11,13,-1,-1,-1,-1,-1,-1,-1,-1],"loss_changes":[6.857444E0,4.2961283E0,6.5881386E0,4.5168614E0,4.611904E0,6.0131197E0,4.5452213E-1,0E0,0E0,0E0,0E0,0E0,0E0,0E0,0E0],"parents":[2147483647,0,0,1,1,2,2,3,3,4,4,5,5,6,6],"right_children":[2,4,6,8,10,12,14,-1,-1,-1,-1,-1,-1,-1,-1],"split_conditions":[-1.6351145E-3,8.077849E-1,6.9415696E-2,2.895429E-1,-4.4943374E-2,1.6825E3,2.09853E3,3.5108267E-3,-6.5833965E-4,7.680484E-3,1.807372E-3,-2.8629883E-3,-1.9194787E-4,1.2929779E-2,3.131161E-3],"split_indices":[4,0,8,0,4,1,1,0,0,0,0,0,0,0,0],"split_type":[0,0,0,0,0,0,0,0,0,0,0,0,0,0,0],"sum_hessian":[7.0590643E2,2.9969836E2,4.062081E2,1.7173767E2,1.27960686E2,4.0224835E2,3.9597502E0,3.0811152E1,1.4092651E2,1.4371341E1,1.1358935E2,1.191008E2,2.8314755E2,2.468186E0,1.491564E0],"tree_param":{"num_deleted":"0","num_feature":"9","num_nodes":"15","size_leaf_vector":"1"}},{"base_weights":[-2.9054304E-4,1.5319644E-2,-6.171718E-1,-9.044819E-1,2.4341958E-2,-2.6137358E-1,-1.1308781E0,1.7945615E-3,-1.1838812E-2,8.528726E-5,5.378344E-3,-6.2956894E-3,3.154652E-3,-1.3210161E-2,-1.379606E-3],"categories":[],"categories_nodes":[],"categories_segments":[],"categories_sizes":[],"default_left":[0,0,0,0,0,0,0,0,0,0,0,0,0,0,0],"id":65,"left_children":[1,3,5,7,9,11,13,-1,-1,-1,-1,-1,-1,-1,-1],"loss_changes":[6.816295E0,5.7514167E0,2.8975034E0,2.251399E0,5.5548487E0,2.6669772E0,1.1106043E0,0E0,0E0,0E0,0E0,0E0,0E0,0E0,0E0],"parents":[2147483647,0,0,1,1,2,2,3,3,4,4,5,5,6,6],"right_children":[2,4,6,8,10,12,14,-1,-1,-1,-1,-1,-1,-1,-1],"split_conditions":[2.0144986E-2,8.643236E-3,3.4221652E0,-8.059759E-3,1.4985846E-2,3.394864E-1,7.8339343E0,1.7945615E-3,-1.1838812E-2,8.528726E-5,5.378344E-3,-6.2956894E-3,3.154652E-3,-1.3210161E-2,-1.379606E-3],"split_indices":[5,6,0,8,5,0,0,0,0,0,0,0,0,0,0],"split_type":[0,0,0,0,0,0,0,0,0,0,0,0,0,0,0],"sum_hessian":[7.05864E2,6.8939404E2,1.6469957E1,5.7324867E0,6.8366156E2,1.0621911E1,5.848046E0,1.248111E0,4.484376E0,6.6422314E2,1.9438442E1,6.4277043E0,4.1942067E0,4.6308293E0,1.2172166E0],"tree_param":{"num_deleted":"0","num_feature":"9","num_nodes":"15","size_leaf_vector":"1"}},{"base_weights":[-3.1939315E-4,1.1312588E-1,-8.40826E-2,1.0539685E-2,2.4969766E-1,-9.786667E-2,1.0544395E0,3.476954E-3,-6.5082364E-4,7.6168156E-3,1.7890496E-3,-2.835137E-3,-1.9050631E-4,3.1032097E-3,1.2850768E-2],"categories":[],"categories_nodes":[],"categories_segments":[],"categories_sizes":[],"default_left":[0,0,0,0,0,0,0,0,0,0,0,0,0,0,0],"id":66,"left_children":[1,3,5,7,9,11,13,-1,-1,-1,-1,-1,-1,-1,-1],"loss_changes":[6.726215E0,4.2095804E0,6.4933023E0,4.426641E0,4.536356E0,5.8946033E0,4.517207E-1,0E0,0E0,0E0,0E0,0E0,0E0,0E0,0E0],"parents":[2147483647,0,0,1,1,2,2,3,3,4,4,5,5,6,6],"right_children":[2,4,6,8,10,12,14,-1,-1,-1,-1,-1,-1,-1,-1],"split_conditions":[-1.6351145E-3,8.077849E-1,6.9415696E-2,2.895429E-1,-4.4943374E-2,1.6825E3,3.5207E9,3.476954E-3,-6.5082364E-4,7.6168156E-3,1.7890496E-3,-2.835137E-3,-1.9050631E-4,3.1032097E-3,1.2850768E-2],"split_indices":[4,0,8,0,4,1,3,0,0,0,0,0,0,0,0],"split_type":[0,0,0,0,0,0,0,0,0,0,0,0,0,0,0],"sum_hessian":[7.058323E2,2.9964944E2,4.0618283E2,1.7173071E2,1.2791875E2,4.022271E2,3.9557152E0,3.080242E1,1.4092828E2,1.4353396E1,1.13565346E2,1.19098854E2,2.8312827E2,1.4909313E0,2.464784E0],"tree_param":{"num_deleted":"0","num_feature":"9","num_nodes":"15","size_leaf_vector":"1"}},{"base_weights":[-2.804055E-4,1.6382093E-2,-5.678097E-1,-6.4884213E-4,6.612437E-1,5.0577265E-1,-7.4731195E-1,-1.233219E-4,8.781743E-3,1.11311115E-2,3.9306487E-4,-2.7692462E-3,1.0612757E-2,2.3144248E-3,-8.350702E-3],"categories":[],"categories_nodes":[],"categories_segments":[],"categories_sizes":[],"default_left":[0,0,0,0,0,0,0,0,0,0,0,0,0,0,0],"id":67,"left_children":[1,3,5,7,9,11,13,-1,-1,-1,-1,-1,-1,-1,-1],"loss_changes":[6.693018E0,7.552078E0,4.2682734E0,6.8994436E0,4.928686E0,1.8105192E0,1.7135134E0,0E0,0E0,0E0,0E0,0E0,0E0,0E0,0E0],"parents":[2147483647,0,0,1,1,2,2,3,3,4,4,5,5,6,6],"right_children":[2,4,6,8,10,12,14,-1,-1,-1,-1,-1,-1,-1,-1],"split_conditions":[1.8962398E-2,1.4985846E-2,3.50244E8,2.6849596E-2,5.06064E8,3.12528E8,2.3389554E-3,-1.233219E-4,8.781743E-3,1.11311115E-2,3.9306487E-4,-2.7692462E-3,1.0612757E-2,2.3144248E-3,-8.350702E-3],"split_indices":[5,5,2,7,2,2,4,0,0,0,0,0,0,0,0],"split_type":[0,0,0,0,0,0,0,0,0,0,0,0,0,0,0],"sum_hessian":[7.0578876E2,6.866015E2,1.918729E1,6.699081E2,1.6693424E1,2.4881735E0,1.6699116E1,6.62092E2,7.8160887E0,9.211254E0,7.4821696E0,1.2410448E0,1.2471287E0,1.239367E0,1.5459749E1],"tree_param":{"num_deleted":"0","num_feature":"9","num_nodes":"15","size_leaf_vector":"1"}},{"base_weights":[-2.4648831E-4,1.1202707E-1,-8.313563E-2,1.05593195E-2,2.4715449E-1,6.237995E-1,-1.114388E-1,3.4453794E-3,-6.4328907E-4,7.548558E-3,1.7703266E-3,5.396632E-4,1.1880521E-2,-2.895731E-3,-3.6646766E-4],"categories":[],"categories_nodes":[],"categories_segments":[],"categories_sizes":[],"default_left":[0,0,0,0,0,0,0,0,0,0,0,0,0,0,0],"id":68,"left_children":[1,3,5,7,9,11,13,-1,-1,-1,-1,-1,-1,-1,-1],"loss_changes":[6.586599E0,4.1189337E0,8.216177E0,4.3422523E0,4.4543443E0,5.0241866E0,5.2164726E0,0E0,0E0,0E0,0E0,0E0,0E0,0E0,0E0],"parents":[2147483647,0,0,1,1,2,2,3,3,4,4,5,5,6,6],"right_children":[2,4,6,8,10,12,14,-1,-1,-1,-1,-1,-1,-1,-1],"split_conditions":[-1.6351145E-3,8.077849E-1,-6.814694E-3,2.895429E-1,-4.4943374E-2,4.06753E9,1.6825E3,3.4453794E-3,-6.4328907E-4,7.548558E-3,1.7703266E-3,5.396632E-4,1.1880521E-2,-2.895731E-3,-3.6646766E-4],"split_indices":[4,0,5,0,4,3,1,0,0,0,0,0,0,0,0],"split_type":[0,0,0,0,0,0,0,0,0,0,0,0,0,0,0],"sum_hessian":[7.057594E2,2.9959952E2,4.0615985E2,1.7172708E2,1.27872444E2,1.4825284E1,3.9133456E2,3.07941E1,1.4093297E2,1.4332957E1,1.1353948E2,7.9212914E0,6.9039927E0,1.1487109E2,2.7646347E2],"tree_param":{"num_deleted":"0","num_feature":"9","num_nodes":"15","size_leaf_vector":"1"}},{"base_weights":[-2.1369405E-4,1.6242312E-2,-5.612211E-1,-6.6943816E-4,6.567529E-1,5.0346684E-1,-7.3951524E-1,-8.962258E-3,8.3916224E-5,-1.5161472E-3,1.1097893E-2,-2.751658E-3,1.0561519E-2,-8.544605E-3,3.0913844E-3],"categories":[],"categories_nodes":[],"categories_segments":[],"categories_sizes":[],"default_left":[0,0,0,0,0,0,0,0,0,0,0,0,0,0,0],"id":69,"left_children":[1,3,5,7,9,11,13,-1,-1,-1,-1,-1,-1,-1,-1],"loss_changes":[6.5334177E0,7.4480047E0,4.200626E0,5.4512997E0,6.645809E0,1.7915342E0,2.395195E0,0E0,0E0,0E0,0E0,0E0,0E0,0E0,0E0],"parents":[2147483647,0,0,1,1,2,2,3,3,4,4,5,5,6,6],"right_children":[2,4,6,8,10,12,14,-1,-1,-1,-1,-1,-1,-1,-1],"split_conditions":[1.8962398E-2,1.4985846E-2,3.50244E8,8.643236E-3,-1.0224786E-2,3.12528E8,3.4339625E-2,-8.962258E-3,8.3916224E-5,-1.5161472E-3,1.1097893E-2,-2.751658E-3,1.0561519E-2,-8.544605E-3,3.0913844E-3],"split_indices":[5,5,2,6,8,2,8,0,0,0,0,0,0,0,0],"split_type":[0,0,0,0,0,0,0,0,0,0,0,0,0,0,0],"sum_hessian":[7.057096E2,6.865423E2,1.9167269E1,6.6985474E2,1.6687586E1,2.4877582E0,1.6679512E1,5.728864E0,6.6412585E2,6.232346E0,1.045524E1,1.2412261E0,1.2465322E0,1.5198728E1,1.4807836E0],"tree_param":{"num_deleted":"0","num_feature":"9","num_nodes":"15","size_leaf_vector":"1"}},{"base_weights":[-2.0731744E-4,1.10977516E-1,-8.228617E-2,1.0561255E-2,2.4474248E-1,6.188158E-1,-1.10339515E-1,3.41216E-3,-6.356033E-4,7.4862605E-3,1.7521951E-3,5.3669146E-4,1.1790591E-2,-2.8646658E-3,-3.6389162E-4],"categories":[],"categories_nodes":[],"categories_segments":[],"categories_sizes":[],"default_left":[0,0,0,0,0,0,0,0,0,0,0,0,0,0,0],"id":70,"left_children":[1,3,5,7,9,11,13,-1,-1,-1,-1,-1,-1,-1,-1],"loss_changes":[6.4582157E0,4.034467E0,8.075747E0,4.2548366E0,4.381942E0,4.9440646E0,5.0993004E0,0E0,0E0,0E0,0E0,0E0,0E0,0E0,0E0],"parents":[2147483647,0,0,1,1,2,2,3,3,4,4,5,5,6,6],"right_children":[2,4,6,8,10,12,14,-1,-1,-1,-1,-1,-1,-1,-1],"split_conditions":[-1.6351145E-3,8.077849E-1,-6.814694E-3,2.895429E-1,-4.4943374E-2,4.06753E9,1.6825E3,3.41216E-3,-6.356033E-4,7.4862605E-3,1.7521951E-3,5.3669146E-4,1.1790591E-2,-2.8646658E-3,-3.6389162E-4],"split_indices":[4,0,5,0,4,3,1,0,0,0,0,0,0,0,0],"split_type":[0,0,0,0,0,0,0,0,0,0,0,0,0,0,0],"sum_hessian":[7.0567737E2,2.995508E2,4.061266E2,1.7172055E2,1.2783025E2,1.4815012E1,3.9131158E2,3.0785162E1,1.409354E2,1.4314516E1,1.1351573E2,7.9207435E0,6.894269E0,1.1486486E2,2.7644672E2],"tree_param":{"num_deleted":"0","num_feature":"9","num_nodes":"15","size_leaf_vector":"1"}},{"base_weights":[-1.7513729E-4,1.0992486E-1,-8.144188E-2,1.0472122E-2,2.424446E-1,-2.5344685E-1,-8.392339E-3,3.380055E-3,-6.292743E-4,7.42528E-3,1.7351696E-3,-3.27752E-3,1.2980641E-3,2.3452523E-3,-1.4007859E-3],"categories":[],"categories_nodes":[],"categories_segments":[],"categories_sizes":[],"default_left":[0,0,0,0,0,0,0,0,0,0,0,0,0,0,0],"id":71,"left_children":[1,3,5,7,9,11,13,-1,-1,-1,-1,-1,-1,-1,-1],"loss_changes":[6.331469E0,3.957952E0,5.1133056E0,4.173494E0,4.310471E0,3.4976435E0,9.207101E0,0E0,0E0,0E0,0E0,0E0,0E0,0E0,0E0],"parents":[2147483647,0,0,1,1,2,2,3,3,4,4,5,5,6,6],"right_children":[2,4,6,8,10,12,14,-1,-1,-1,-1,-1,-1,-1,-1],"split_conditions":[-1.6351145E-3,8.077849E-1,1.6825E3,2.895429E-1,-4.4943374E-2,3.3038095E-2,2.09993E3,3.380055E-3,-6.292743E-4,7.42528E-3,1.7351696E-3,-3.27752E-3,1.2980641E-3,2.3452523E-3,-1.4007859E-3],"split_indices":[4,0,1,0,4,4,1,0,0,0,0,0,0,0,0],"split_type":[0,0,0,0,0,0,0,0,0,0,0,0,0,0,0],"sum_hessian":[7.056263E2,2.9950497E2,4.061213E2,1.7171568E2,1.2778929E2,1.2032661E2,2.857947E2,3.0776342E1,1.4093935E2,1.4296059E1,1.1349323E2,1.00907486E2,1.941912E1,1.0019224E2,1.8560248E2],"tree_param":{"num_deleted":"0","num_feature":"9","num_nodes":"15","size_leaf_vector":"1"}},{"base_weights":[-1.5782099E-4,1.0888231E-1,-8.062947E-2,6.5268505E-1,8.327222E-2,-9.431246E-2,1.0495119E0,1.394561E-2,3.0557706E-3,-2.8623964E-3,1.2944766E-3,-3.1849174E-3,-3.3172342E-4,3.0816202E-3,1.2796471E-2],"categories":[],"categories_nodes":[],"categories_segments":[],"categories_sizes":[],"default_left":[0,0,0,0,0,0,0,0,0,0,0,0,0,0,0],"id":72,"left_children":[1,3,5,7,9,11,13,-1,-1,-1,-1,-1,-1,-1,-1],"loss_changes":[6.2087855E0,4.1300898E0,6.3946266E0,3.0160794E0,4.9525785E0,5.515436E0,4.5063972E-1,0E0,0E0,0E0,0E0,0E0,0E0,0E0,0E0],"parents":[2147483647,0,0,1,1,2,2,3,3,4,4,5,5,6,6],"right_children":[2,4,6,8,10,12,14,-1,-1,-1,-1,-1,-1,-1,-1],"split_conditions":[-1.6351145E-3,-3.9522912E-2,6.9415696E-2,5.76136E8,3.02077E9,-1.485758E-2,3.5207E9,1.394561E-2,3.0557706E-3,-2.8623964E-3,1.2944766E-3,-3.1849174E-3,-3.3172342E-4,3.0816202E-3,1.2796471E-2],"split_indices":[4,8,8,2,3,8,3,0,0,0,0,0,0,0,0],"split_type":[0,0,0,0,0,0,0,0,0,0,0,0,0,0,0],"sum_hessian":[7.055825E2,2.9945883E2,4.061237E2,1.2367288E1,2.8709155E2,4.0217102E2,3.952668E0,2.9801462E0,9.387141E0,3.1313232E1,2.5577832E2,8.527786E1,3.1689316E2,1.4904453E0,2.4622226E0],"tree_param":{"num_deleted":"0","num_feature":"9","num_nodes":"15","size_leaf_vector":"1"}},{"base_weights":[-1.1679236E-4,1.609372E-2,-5.5349E-1,-7.4457075E-4,6.5390366E-1,5.008393E-1,-7.3043835E-1,-1.2243396E-4,8.662198E-3,-1.4587094E-3,1.102123E-2,-2.7391054E-3,1.05100805E-2,-8.443303E-3,3.0683314E-3],"categories":[],"categories_nodes":[],"categories_segments":[],"categories_sizes":[],"default_left":[0,0,0,0,0,0,0,0,0,0,0,0,0,0,0],"id":73,"left_children":[1,3,5,7,9,11,13,-1,-1,-1,-1,-1,-1,-1,-1],"loss_changes":[6.347058E0,7.3831306E0,4.122642E0,6.697243E0,6.4994473E0,1.7742608E0,2.3441772E0,0E0,0E0,0E0,0E0,0E0,0E0,0E0,0E0],"parents":[2147483647,0,0,1,1,2,2,3,3,4,4,5,5,6,6],"right_children":[2,4,6,8,10,12,14,-1,-1,-1,-1,-1,-1,-1,-1],"split_conditions":[1.8962398E-2,1.4985846E-2,3.50244E8,2.6849596E-2,-1.0224786E-2,3.12528E8,3.4339625E-2,-1.2243396E-4,8.662198E-3,-1.4587094E-3,1.102123E-2,-2.7391054E-3,1.05100805E-2,-8.443303E-3,3.0683314E-3],"split_indices":[5,5,2,7,8,2,8,0,0,0,0,0,0,0,0],"split_type":[0,0,0,0,0,0,0,0,0,0,0,0,0,0,0],"sum_hessian":[7.0555774E2,6.8642065E2,1.9137087E1,6.697383E2,1.6682371E1,2.4871602E0,1.6649927E1,6.619446E2,7.793705E0,6.2337728E0,1.0448599E1,1.2412962E0,1.2458642E0,1.5170247E1,1.4796789E0],"tree_param":{"num_deleted":"0","num_feature":"9","num_nodes":"15","size_leaf_vector":"1"}},{"base_weights":[-8.657618E-5,1.0784217E-1,-7.9734795E-2,6.477211E-1,8.242733E-2,-9.331189E-2,1.0425489E0,1.3853365E-2,3.0284892E-3,-2.8329236E-3,1.2814341E-3,-3.1458624E-3,-3.2966986E-4,3.0535795E-3,1.2718261E-2],"categories":[],"categories_nodes":[],"categories_segments":[],"categories_sizes":[],"default_left":[0,0,0,0,0,0,0,0,0,0,0,0,0,0,0],"id":74,"left_children":[1,3,5,7,9,11,13,-1,-1,-1,-1,-1,-1,-1,-1],"loss_changes":[6.0821157E0,4.068745E0,6.3003693E0,2.9792542E0,4.8525505E0,5.3727913E0,4.479947E-1,0E0,0E0,0E0,0E0,0E0,0E0,0E0,0E0],"parents":[2147483647,0,0,1,1,2,2,3,3,4,4,5,5,6,6],"right_children":[2,4,6,8,10,12,14,-1,-1,-1,-1,-1,-1,-1,-1],"split_conditions":[-1.6351145E-3,-3.9522912E-2,6.9415696E-2,5.76136E8,3.02077E9,-1.485758E-2,3.5207E9,1.3853365E-2,3.0284892E-3,-2.8329236E-3,1.2814341E-3,-3.1458624E-3,-3.2966986E-4,3.0535795E-3,1.2718261E-2],"split_indices":[4,8,8,2,3,8,3,0,0,0,0,0,0,0,0],"split_type":[0,0,0,0,0,0,0,0,0,0,0,0,0,0,0],"sum_hessian":[7.055242E2,2.9942667E2,4.0609747E2,1.2360961E1,2.870657E2,4.0214923E2,3.9482412E0,2.9769282E0,9.384033E0,3.1319454E1,2.5574626E2,8.526909E1,3.1688013E2,1.4898341E0,2.4584074E0],"tree_param":{"num_deleted":"0","num_feature":"9","num_nodes":"15","size_leaf_vector":"1"}},{"base_weights":[-4.6506E-5,1.4807042E-2,-5.901718E-1,-8.885638E-1,2.3663698E-2,-1.9752789E-1,-1.0517207E0,1.8337087E-3,-1.1663405E-2,8.240153E-5,5.248718E-3,-5.959135E-3,5.4751495E-3,-1.2039676E-2,-1.2648809E-3],"categories":[],"categories_nodes":[],"categories_segments":[],"categories_sizes":[],"default_left":[0,0,0,0,0,0,0,0,0,0,0,0,0,0,0],"id":75,"left_children":[1,3,5,7,9,11,13,-1,-1,-1,-1,-1,-1,-1,-1],"loss_changes":[6.201516E0,5.5426316E0,2.9402218E0,2.2166767E0,5.286376E0,3.4775877E0,9.39888E-1,0E0,0E0,0E0,0E0,0E0,0E0,0E0,0E0],"parents":[2147483647,0,0,1,1,2,2,3,3,4,4,5,5,6,6],"right_children":[2,4,6,8,10,12,14,-1,-1,-1,-1,-1,-1,-1,-1],"split_conditions":[2.0144986E-2,8.643236E-3,8.077849E-1,-8.059759E-3,1.4985846E-2,3.394864E-1,7.8339343E0,1.8337087E-3,-1.1663405E-2,8.240153E-5,5.248718E-3,-5.959135E-3,5.4751495E-3,-1.2039676E-2,-1.2648809E-3],"split_indices":[5,6,0,8,5,0,0,0,0,0,0,0,0,0,0],"split_type":[0,0,0,0,0,0,0,0,0,0,0,0,0,0,0],"sum_hessian":[7.0549817E2,6.891276E2,1.6370543E1,5.726269E0,6.8340137E2,9.617128E0,6.7534137E0,1.2484373E0,4.4778314E0,6.6398517E2,1.9416199E1,6.3968163E0,3.220312E0,5.54047E0,1.2129437E0],"tree_param":{"num_deleted":"0","num_feature":"9","num_nodes":"15","size_leaf_vector":"1"}},{"base_weights":[-7.211384E-5,1.5831357E-2,-5.4425716E-1,-7.4838434E-4,6.4425653E-1,4.9502584E-1,-7.1915454E-1,-1.2142263E-4,8.593439E-3,1.0892755E-2,3.328828E-4,-2.746308E-3,1.0429378E-2,2.4012118E-3,-8.063877E-3],"categories":[],"categories_nodes":[],"categories_segments":[],"categories_sizes":[],"default_left":[0,0,0,0,0,0,0,0,0,0,0,0,0,0,0],"id":76,"left_children":[1,3,5,7,9,11,13,-1,-1,-1,-1,-1,-1,-1,-1],"loss_changes":[6.1226473E0,7.1623254E0,4.0073466E0,6.5831966E0,4.7680826E0,1.7564325E0,1.666584E0,0E0,0E0,0E0,0E0,0E0,0E0,0E0,0E0],"parents":[2147483647,0,0,1,1,2,2,3,3,4,4,5,5,6,6],"right_children":[2,4,6,8,10,12,14,-1,-1,-1,-1,-1,-1,-1,-1],"split_conditions":[1.8962398E-2,1.4985846E-2,3.50244E8,2.6849596E-2,5.06064E8,3.12528E8,2.3389554E-3,-1.2142263E-4,8.593439E-3,1.0892755E-2,3.328828E-4,-2.746308E-3,1.0429378E-2,2.4012118E-3,-8.063877E-3],"split_indices":[5,5,2,7,2,2,4,0,0,0,0,0,0,0,0],"split_type":[0,0,0,0,0,0,0,0,0,0,0,0,0,0,0],"sum_hessian":[7.054625E2,6.863746E2,1.9087963E1,6.697045E2,1.6670006E1,2.4858801E0,1.6602083E1,6.6192175E2,7.782777E0,9.191906E0,7.4780993E0,1.2411684E0,1.2447118E0,1.2377956E0,1.5364288E1],"tree_param":{"num_deleted":"0","num_feature":"9","num_nodes":"15","size_leaf_vector":"1"}},{"base_weights":[-4.0625473E-5,1.5702145E-2,-5.3922653E-1,-7.2820624E-4,6.387388E-1,4.9238068E-1,-7.1302855E-1,-1.202094E-4,8.527351E-3,-1.5097463E-3,1.0824665E-2,-2.7309125E-3,1.0375531E-2,-8.26304E-3,3.1038262E-3],"categories":[],"categories_nodes":[],"categories_segments":[],"categories_sizes":[],"default_left":[0,0,0,0,0,0,0,0,0,0,0,0,0,0,0],"id":77,"left_children":[1,3,5,7,9,11,13,-1,-1,-1,-1,-1,-1,-1,-1],"loss_changes":[6.0048404E0,7.0367785E0,3.9493604E0,6.4743996E0,6.3525257E0,1.7377598E0,2.29492E0,0E0,0E0,0E0,0E0,0E0,0E0,0E0,0E0],"parents":[2147483647,0,0,1,1,2,2,3,3,4,4,5,5,6,6],"right_children":[2,4,6,8,10,12,14,-1,-1,-1,-1,-1,-1,-1,-1],"split_conditions":[1.8962398E-2,1.4985846E-2,3.50244E8,2.6849596E-2,-1.0224786E-2,3.12528E8,3.4339625E-2,-1.202094E-4,8.527351E-3,-1.5097463E-3,1.0824665E-2,-2.7309125E-3,1.0375531E-2,-8.26304E-3,3.1038262E-3],"split_indices":[5,5,2,7,8,2,8,0,0,0,0,0,0,0,0],"split_type":[0,0,0,0,0,0,0,0,0,0,0,0,0,0,0],"sum_hessian":[7.054297E2,6.863607E2,1.9068998E1,6.6969867E2,1.6662062E1,2.4851742E0,1.6583824E1,6.6192615E2,7.7724657E0,6.2314863E0,1.0430575E1,1.2413205E0,1.2438536E0,1.5104583E1,1.4792417E0],"tree_param":{"num_deleted":"0","num_feature":"9","num_nodes":"15","size_leaf_vector":"1"}},{"base_weights":[-1.1593352E-5,1.5571374E-2,-5.3428346E-1,-7.0833E-4,6.331896E-1,-6.8264276E-1,5.491261E-3,-1.1900836E-4,8.461969E-3,-1.4966452E-3,1.0734415E-2,1.8633006E-3,-8.489318E-3],"categories":[],"categories_nodes":[],"categories_segments":[],"categories_sizes":[],"default_left":[0,0,0,0,0,0,0,0,0,0,0,0,0],"id":78,"left_children":[1,3,5,7,9,11,-1,-1,-1,-1,-1,-1,-1],"loss_changes":[5.8894286E0,6.9114666E0,3.5971894E0,6.367558E0,6.244976E0,2.7705812E0,0E0,0E0,0E0,0E0,0E0,0E0,0E0],"parents":[2147483647,0,0,1,1,2,2,3,3,4,4,5,5],"right_children":[2,4,6,8,10,12,-1,-1,-1,-1,-1,-1,-1],"split_conditions":[1.8962398E-2,1.4985846E-2,3.4339625E-2,2.6849596E-2,-1.0224786E-2,2.2310985E-2,5.491261E-3,-1.1900836E-4,8.461969E-3,-1.4966452E-3,1.0734415E-2,1.8633006E-3,-8.489318E-3],"split_indices":[5,5,8,7,8,6,0,0,0,0,0,0,0],"split_type":[0,0,0,0,0,0,0,0,0,0,0,0,0],"sum_hessian":[7.053936E2,6.8634595E2,1.904762E1,6.696925E2,1.665347E1,1.7078804E1,1.968815E0,6.6193054E2,7.7619743E0,6.2319274E0,1.0421541E1,2.7239275E0,1.4354877E1],"tree_param":{"num_deleted":"0","num_feature":"9","num_nodes":"13","size_leaf_vector":"1"}},{"base_weights":[1.1832032E-5,1.0678077E-1,-7.879125E-2,6.426149E-1,8.156757E-2,-9.22554E-2,1.0349575E0,1.3763679E-2,2.9982303E-3,-1.4614881E-4,2.0838187E-3,-2.6920359E-3,-1.7128985E-4,1.265516E-2,2.9891515E-3],"categories":[],"categories_nodes":[],"categories_segments":[],"categories_sizes":[],"default_left":[0,0,0,0,0,0,0,0,0,0,0,0,0,0,0],"id":79,"left_children":[1,3,5,7,9,11,13,-1,-1,-1,-1,-1,-1,-1,-1],"loss_changes":[5.9515085E0,4.0057306E0,6.1983976E0,2.9460664E0,3.5161822E0,5.3531322E0,4.605584E-1,0E0,0E0,0E0,0E0,0E0,0E0,0E0,0E0],"parents":[2147483647,0,0,1,1,2,2,3,3,4,4,5,5,6,6],"right_children":[2,4,6,8,10,12,14,-1,-1,-1,-1,-1,-1,-1,-1],"split_conditions":[-1.6351145E-3,-3.9522912E-2,6.9415696E-2,5.76136E8,8.077849E-1,1.6825E3,2.09853E3,1.3763679E-2,2.9982303E-3,-1.4614881E-4,2.0838187E-3,-2.6920359E-3,-1.7128985E-4,1.265516E-2,2.9891515E-3],"split_indices":[4,8,8,2,0,1,1,0,0,0,0,0,0,0,0],"split_type":[0,0,0,0,0,0,0,0,0,0,0,0,0,0,0],"sum_hessian":[7.053575E2,2.99379E2,4.0597845E2,1.2353501E1,2.870255E2,4.020354E2,3.9430525E0,2.9734974E0,9.380004E0,1.6372946E2,1.2329604E2,1.19049675E2,2.8298575E2,2.4547675E0,1.4882852E0],"tree_param":{"num_deleted":"0","num_feature":"9","num_nodes":"15","size_leaf_vector":"1"}},{"base_weights":[5.6400688E-5,1.0578835E-1,-7.797217E-2,8.750351E-3,2.3521844E-1,-2.4547844E-1,-6.836367E-3,3.3249222E-3,-6.375725E-4,6.7183045E-3,1.5836143E-3,-9.2032115E-4,-4.384574E-3,2.3275407E-3,-1.3674797E-3],"categories":[],"categories_nodes":[],"categories_segments":[],"categories_sizes":[],"default_left":[0,0,0,0,0,0,0,0,0,0,0,0,0,0,0],"id":80,"left_children":[1,3,5,7,9,11,13,-1,-1,-1,-1,-1,-1,-1,-1],"loss_changes":[5.835461E0,3.7701302E0,4.847734E0,4.074856E0,4.2107863E0,3.5511394E0,8.955267E0,0E0,0E0,0E0,0E0,0E0,0E0,0E0,0E0],"parents":[2147483647,0,0,1,1,2,2,3,3,4,4,5,5,6,6],"right_children":[2,4,6,8,10,12,14,-1,-1,-1,-1,-1,-1,-1,-1],"split_conditions":[-1.6351145E-3,8.077849E-1,1.6825E3,2.895429E-1,-3.9522912E-2,3.3516383E-1,2.09993E3,3.3249222E-3,-6.375725E-4,6.7183045E-3,1.5836143E-3,-9.2032115E-4,-4.384574E-3,2.3275407E-3,-1.3674797E-3],"split_indices":[4,0,1,0,4,0,1,0,0,0,0,0,0,0,0],"split_type":[0,0,0,0,0,0,0,0,0,0,0,0,0,0,0],"sum_hessian":[7.053191E2,2.9934222E2,4.059769E2,1.7168896E2,1.2765327E2,1.2028537E2,2.856915E2,3.0760342E1,1.4092862E2,1.7948647E1,1.0970462E2,6.782865E1,5.2456722E1,1.001667E2,1.8552481E2],"tree_param":{"num_deleted":"0","num_feature":"9","num_nodes":"15","size_leaf_vector":"1"}},{"base_weights":[6.542875E-5,1.5447828E-2,-5.279966E-1,-7.258991E-4,6.2926376E-1,4.8931083E-1,-7.000178E-1,-1.1797131E-4,8.383634E-3,1.0682423E-2,2.8089873E-4,-2.7306415E-3,1.0328925E-2,2.445472E-3,-7.86708E-3],"categories":[],"categories_nodes":[],"categories_segments":[],"categories_sizes":[],"default_left":[0,0,0,0,0,0,0,0,0,0,0,0,0,0,0],"id":81,"left_children":[1,3,5,7,9,11,13,-1,-1,-1,-1,-1,-1,-1,-1],"loss_changes":[5.745103E0,6.8232813E0,3.8459435E0,6.2396617E0,4.6265445E0,1.7259349E0,1.6282759E0,0E0,0E0,0E0,0E0,0E0,0E0,0E0,0E0],"parents":[2147483647,0,0,1,1,2,2,3,3,4,4,5,5,6,6],"right_children":[2,4,6,8,10,12,14,-1,-1,-1,-1,-1,-1,-1,-1],"split_conditions":[1.8962398E-2,1.4985846E-2,3.50244E8,2.6849596E-2,5.06064E8,3.12528E8,2.3389554E-3,-1.1797131E-4,8.383634E-3,1.0682423E-2,2.8089873E-4,-2.7306415E-3,1.0328925E-2,2.445472E-3,-7.86708E-3],"split_indices":[5,5,2,7,2,2,4,0,0,0,0,0,0,0,0],"split_type":[0,0,0,0,0,0,0,0,0,0,0,0,0,0,0],"sum_hessian":[7.0527155E2,6.862519E2,1.9019707E1,6.696069E2,1.6644972E1,2.484177E0,1.653553E1,6.6186005E2,7.746868E0,9.171208E0,7.473764E0,1.2411369E0,1.2430403E0,1.2369503E0,1.529858E1],"tree_param":{"num_deleted":"0","num_feature":"9","num_nodes":"15","size_leaf_vector":"1"}},{"base_weights":[9.511612E-5,1.5321809E-2,-5.231316E-1,-7.062568E-4,6.239135E-1,4.867155E-1,-6.940863E-1,-1.1679265E-4,8.319769E-3,-1.4966738E-3,1.0596656E-2,-2.715341E-3,1.0276166E-2,-8.056656E-3,3.0808367E-3],"categories":[],"categories_nodes":[],"categories_segments":[],"categories_sizes":[],"default_left":[0,0,0,0,0,0,0,0,0,0,0,0,0,0,0],"id":82,"left_children":[1,3,5,7,9,11,13,-1,-1,-1,-1,-1,-1,-1,-1],"loss_changes":[5.6346064E0,6.704119E0,3.7905517E0,6.1370196E0,6.1034985E0,1.7076875E0,2.2069263E0,0E0,0E0,0E0,0E0,0E0,0E0,0E0,0E0],"parents":[2147483647,0,0,1,1,2,2,3,3,4,4,5,5,6,6],"right_children":[2,4,6,8,10,12,14,-1,-1,-1,-1,-1,-1,-1,-1],"split_conditions":[1.8962398E-2,1.4985846E-2,3.50244E8,2.6849596E-2,-1.0224786E-2,3.12528E8,3.4339625E-2,-1.1679265E-4,8.319769E-3,-1.4966738E-3,1.0596656E-2,-2.715341E-3,1.0276166E-2,-8.056656E-3,3.0808367E-3],"split_indices":[5,5,2,7,8,2,8,0,0,0,0,0,0,0,0],"split_type":[0,0,0,0,0,0,0,0,0,0,0,0,0,0,0],"sum_hessian":[7.05236E2,6.8623627E2,1.8999802E1,6.696003E2,1.6635967E1,2.4833508E0,1.651645E1,6.6186426E2,7.7360015E0,6.2309084E0,1.0405058E1,1.2412833E0,1.2420673E0,1.5038209E1,1.478241E0],"tree_param":{"num_deleted":"0","num_feature":"9","num_nodes":"15",